svm_type c_svc
kernel_type linear
nr_class 5
total_sv 250
rho -0.000747046 0.125036 0.0657882 -0.0509571 0.260788 0.10395 -0.0412228 -0.147935 -0.159452 -0.106379
label 9 7 8 5 6
nr_sv 54 50 53 45 48
SV
0.008669871213778728 0.00906272239130247 0.00343787436341318 0.005728207027985622 1:7 2:2 3:2 4:1 5:1 6:2 7:1 8:1 9:3 10:2 11:4 12:1 13:1 14:1 15:1 16:5 17:1 18:1 19:1 20:1 21:1 22:1 23:1 24:2 25:1 26:1 27:2 28:1 29:5 30:1 31:1 32:1 33:1 34:1 35:1 36:1 37:1 38:1 39:1 40:1 41:1 42:1 43:1 44:1 45:1 46:1 47:1 48:2 49:1 50:1 51:1 52:1 53:1 54:1 55:1 56:4 57:1 58:1 59:1 60:1 61:1 62:1 63:1 64:1 65:1 66:1 67:1 68:1 69:1 70:1 71:1 72:1 73:1 74:1 75:1 76:1 77:1 78:1 79:1 80:1 81:1 82:1 83:1 
0.01810211431174413 0.01731676283927784 0.02373176972347103 0.01627792604642353 1:3 14:3 16:3 19:1 27:2 31:4 38:1 43:1 48:2 61:1 62:3 63:2 65:1 71:1 81:1 82:2 84:1 85:1 86:1 87:2 88:1 89:1 90:1 91:1 92:2 93:1 94:1 95:1 96:1 97:2 98:1 99:1 100:1 101:1 102:1 103:2 104:1 105:1 106:1 107:1 108:1 109:1 110:1 111:1 112:1 113:1 114:1 115:1 116:1 117:1 118:1 119:1 120:1 121:2 122:1 123:1 124:1 125:1 126:1 
0.02168610020303229 0.02298046381916068 0.0189040194836936 0.02017478799589647 1:3 9:1 14:5 16:2 27:6 38:1 48:3 49:2 56:2 61:1 62:2 81:1 82:2 87:1 127:1 128:1 129:1 130:1 131:2 132:2 133:1 134:1 135:1 136:1 137:1 138:1 139:1 140:3 141:1 142:1 143:1 144:1 145:1 146:1 147:1 148:1 149:1 150:1 151:1 152:1 153:1 154:1 155:1 156:1 157:2 158:1 159:1 160:1 161:1 162:1 163:1 164:1 165:1 166:1 167:1 168:1 169:1 170:1 171:1 172:1 
0.02031001747816394 0.01825375745752531 0.02234859628613457 0.02575350773359966 1:1 14:5 15:1 16:2 19:1 24:1 27:3 31:2 38:1 43:1 48:2 62:7 63:2 71:1 81:1 82:1 123:1 126:1 128:1 149:1 173:1 174:2 175:1 176:1 177:1 178:1 179:1 180:1 181:1 182:1 183:1 184:1 185:1 186:1 187:1 188:1 189:1 190:1 191:1 192:1 193:1 194:1 195:1 196:1 197:1 198:1 199:1 200:2 201:1 202:1 203:1 204:1 205:1 206:2 207:1 208:1 209:1 210:1 211:1 212:1 213:1 214:1 215:1 216:1 217:1 218:1 219:1 220:1 221:1 222:1 223:1 224:1 225:1 226:1 227:1 228:1 
0.005880051223418841 0.00401903070526462 0.006219516905223143 0.003850500014056559 1:7 8:1 11:2 14:4 16:6 17:1 19:1 27:10 31:1 38:3 45:1 48:10 56:3 62:2 71:2 81:1 82:2 87:1 90:1 110:1 123:1 126:1 191:1 202:1 248:1 251:1 255:1 325:1 327:1 338:1 353:1 368:1 386:2 388:2 407:1 425:1 432:1 442:1 443:1 444:1 445:1 446:2 447:1 448:1 449:2 450:1 451:1 452:1 453:1 454:1 455:1 456:1 457:1 458:1 459:1 460:1 461:1 462:1 463:1 464:1 465:1 466:1 467:1 468:1 469:1 470:1 471:1 472:1 473:1 474:1 475:1 476:1 477:1 478:3 479:1 480:1 481:1 482:1 483:1 484:1 485:1 486:1 487:1 488:1 489:1 490:1 491:1 492:3 493:1 494:1 495:1 496:1 497:1 498:1 499:1 500:1 501:1 502:2 503:1 504:1 505:1 506:1 507:1 508:1 509:1 510:1 511:1 512:1 513:1 514:1 515:1 516:1 517:1 518:1 519:1 520:1 521:1 522:1 523:1 524:1 525:1 526:1 527:1 528:1 529:1 530:1 
0.01343443118282968 0.01051546844306167 0.009750365287282832 0.00370500210547017 1:4 2:1 11:1 14:5 16:6 19:6 22:1 27:9 29:4 31:1 33:1 38:3 39:1 43:1 47:1 48:8 49:5 59:1 71:1 81:1 82:1 88:1 105:1 111:1 112:2 113:1 150:1 171:1 239:1 247:1 305:1 340:1 365:2 418:1 437:1 471:1 575:1 661:1 662:1 663:1 664:1 665:1 666:1 667:4 668:1 669:1 670:2 671:1 672:2 673:1 674:1 675:1 676:1 677:1 678:1 679:1 680:1 681:1 682:1 683:1 684:2 685:1 686:1 687:1 688:1 689:1 690:1 691:1 692:1 693:2 694:1 695:1 696:1 697:2 698:1 699:1 700:1 701:1 702:1 703:1 704:1 705:1 706:1 707:1 708:1 709:1 710:1 711:1 712:1 713:1 714:1 715:1 716:1 717:1 718:1 
0.01669147803998737 0.0159526638982102 0.001421147795249668 0.02028395259743565 1:1 12:1 27:3 29:3 33:1 38:1 48:1 49:2 56:1 62:7 63:3 71:1 81:1 82:1 88:1 123:1 126:1 161:1 171:1 213:1 221:1 263:1 316:2 339:1 479:1 498:1 581:1 719:2 720:2 721:1 722:3 723:1 724:1 725:1 726:1 727:1 728:2 729:1 730:1 731:1 732:1 733:1 734:1 735:1 736:1 737:1 738:2 739:1 740:1 
0.006088275502165373 0.006038944369458388 0.003206985799320253 0.001616112225171756 1:2 13:1 14:3 16:7 19:3 24:1 27:6 29:5 33:1 38:4 45:1 48:9 49:3 56:1 57:1 58:1 61:2 62:4 65:1 75:1 81:1 82:2 110:1 149:1 166:1 172:1 179:1 218:3 221:5 248:1 255:2 279:1 280:1 325:2 368:1 377:2 388:4 475:1 500:1 517:1 557:2 590:1 591:1 592:1 622:1 633:1 699:1 729:2 812:1 855:3 860:1 874:1 877:1 918:1 921:1 948:1 1049:1 1057:1 1075:1 1200:2 1283:6 1284:1 1285:1 1286:1 1287:1 1288:1 1289:1 1290:1 1291:1 1292:2 1293:1 1294:1 1295:1 1296:1 1297:1 1298:1 1299:1 1300:1 1301:1 1302:1 1303:1 1304:1 1305:1 1306:1 1307:1 1308:1 1309:2 1310:1 1311:1 1312:1 1313:1 1314:1 1315:1 1316:1 1317:1 1318:1 1319:1 1320:1 1321:1 1322:1 1323:1 1324:2 1325:1 1326:1 1327:1 1328:1 1329:1 1330:1 1331:1 1332:1 1333:1 1334:1 1335:1 1336:1 1337:1 1338:1 1339:1 1340:1 1341:1 1342:1 1343:1 
0.003314237085270532 0.004023864122278453 0.001779840793317295 0.008350994993660816 14:5 16:3 19:1 22:1 24:2 27:7 29:5 38:2 46:1 47:1 48:5 49:1 62:6 63:3 71:1 81:1 82:1 88:1 110:2 116:1 118:1 123:1 126:1 161:1 196:1 213:2 218:1 245:2 251:1 255:1 303:1 340:1 353:1 388:1 396:1 412:1 413:1 425:1 436:1 530:1 548:1 628:1 641:2 648:1 660:1 693:2 718:1 816:3 855:1 948:1 1096:2 1097:1 1108:1 1120:1 1200:1 1255:3 1412:1 1511:1 1516:1 1655:1 1674:1 1796:1 1797:1 1798:1 1799:1 1800:1 1801:1 1802:1 1803:1 1804:1 1805:1 1806:1 1807:1 1808:1 1809:1 1810:2 1811:1 1812:1 1813:1 1814:1 1815:1 1816:1 1817:1 1818:1 1819:1 1820:1 1821:1 1822:1 1823:1 1824:1 1825:1 1826:1 1827:1 1828:1 1829:1 
0.01331805131409055 0.01657838291670102 0.0177693450809398 0.02297053725970693 1:2 11:1 14:3 16:2 19:1 27:12 38:2 46:1 48:4 56:2 61:1 62:3 71:1 75:1 81:1 82:2 88:1 101:1 106:1 123:1 126:1 197:1 202:1 215:1 221:1 231:1 233:1 271:2 305:2 325:2 475:1 690:1 796:1 899:3 904:1 999:1 1049:1 1117:1 1168:1 1170:2 1188:1 1200:1 1205:1 1475:1 1589:1 1708:1 1777:1 1788:1 1888:1 1898:1 1899:1 1900:1 1901:1 1902:1 1903:1 1904:2 1905:1 1906:1 1907:1 1908:1 1909:1 1910:1 1911:1 1912:1 1913:1 1914:1 1915:1 1916:1 1917:1 1918:1 1919:1 1920:1 1921:1 1922:1 1923:1 
0.004297956807380652 0.008455535127299924 0.001605522805553591 0.003448238748271697 1:6 14:4 16:3 19:4 24:3 27:8 29:8 31:3 37:1 38:4 47:1 48:5 49:3 56:2 57:1 58:1 61:2 62:1 63:1 71:1 81:1 82:1 88:2 110:1 137:1 149:1 161:2 171:1 179:1 215:1 221:3 237:1 248:2 255:2 308:1 368:1 372:2 377:2 392:1 409:1 432:1 441:1 471:1 557:3 558:3 574:2 633:1 641:1 796:1 816:1 882:1 918:1 957:1 980:1 1055:1 1059:1 1097:1 1195:1 1265:1 1302:1 1316:1 1367:1 1566:1 1657:1 1670:1 1672:1 1707:1 2082:1 2137:1 2191:1 2192:1 2193:1 2194:1 2195:1 2196:1 2197:1 2198:1 2199:1 2200:1 2201:1 2202:1 2203:1 2204:1 2205:1 2206:1 2207:1 2208:1 2209:1 2210:1 2211:1 2212:1 2213:1 2214:1 2215:1 2216:1 2217:1 2218:1 2219:1 2220:1 2221:1 2222:1 2223:1 2224:1 2225:1 2226:1 2227:1 2228:1 2229:1 
0.002472336470411834 0.003410447266156865 0.002111621332844176 0.005590550519562239 1:6 5:1 14:5 16:5 19:3 24:2 27:12 38:5 47:1 48:7 49:3 56:1 62:6 63:6 71:1 81:1 82:2 90:1 91:4 106:1 110:2 137:2 149:1 165:1 171:1 179:2 213:2 221:1 251:2 255:1 266:1 288:2 316:1 325:2 365:1 372:1 388:1 396:2 419:1 421:1 436:1 440:1 468:2 489:1 500:1 508:1 514:1 517:1 593:2 595:1 684:5 691:1 755:1 1058:1 1097:1 1175:3 1184:1 1257:1 1439:1 1440:1 1548:1 1578:2 1693:1 1720:1 1905:1 2027:1 2088:1 2195:1 2459:1 2460:5 2461:4 2462:1 2463:1 2464:2 2465:1 2466:1 2467:1 2468:4 2469:1 2470:1 2471:1 2472:1 2473:1 2474:2 2475:2 2476:1 2477:1 2478:1 2479:1 2480:2 2481:2 2482:1 2483:1 2484:1 2485:1 2486:1 2487:1 2488:1 2489:1 2490:1 2491:1 2492:1 2493:1 2494:2 2495:1 2496:1 2497:1 2498:1 2499:1 2500:1 2501:1 2502:1 2503:1 2504:1 2505:1 2506:1 2507:1 2508:1 
0.01305185714857193 0.01121885699354291 0.01098212703855472 0.007367981067140076 1:3 11:1 14:1 16:3 19:7 27:6 29:1 38:1 41:1 45:1 47:1 48:6 49:4 62:7 69:1 71:1 81:1 82:3 88:1 101:1 110:1 123:1 126:1 158:1 161:1 180:1 202:1 211:1 248:1 255:1 274:2 318:1 325:1 343:1 374:1 388:2 419:3 420:1 423:1 442:1 524:1 575:1 581:1 690:2 743:1 793:1 797:1 805:1 896:1 933:1 1018:1 1069:1 1085:1 1170:1 1301:1 1320:1 1363:1 1413:1 1414:2 1415:1 1416:1 1548:1 1560:1 1578:1 1823:1 1892:1 1943:1 2035:1 2106:1 2135:1 2210:1 2243:1 2251:1 2489:1 2625:1 2626:1 2627:3 2628:2 2629:2 2630:1 2631:1 2632:1 2633:1 2634:1 2635:2 2636:2 2637:1 2638:1 2639:1 2640:1 2641:1 2642:1 2643:1 2644:1 2645:1 2646:1 2647:1 2648:1 2649:1 2650:1 2651:1 2652:2 2653:1 2654:1 2655:1 2656:1 2657:1 2658:1 2659:1 
0.02813824104805482 0.0238453812182376 0.02508433688542137 0.02469847192223787 1:2 11:2 14:2 16:2 27:2 43:1 48:3 62:1 63:1 81:1 82:1 172:1 213:1 221:1 251:1 334:2 338:1 409:1 482:1 500:1 501:1 531:1 594:1 663:1 685:1 767:1 830:1 1028:1 1085:1 1144:1 1190:1 1274:1 1768:1 1836:1 1911:1 2701:1 2702:1 2703:1 2704:1 2705:1 2706:1 2707:1 2708:1 2709:1 2710:1 2711:1 2712:1 2713:1 
0.007096078794753492 0.00660033906422941 0.006790815213479707 0.004926270478499423 1:4 14:5 16:5 19:1 27:9 29:3 32:1 38:3 45:2 47:3 48:5 49:4 61:1 81:1 82:1 88:1 104:1 110:1 111:1 112:1 113:1 209:1 213:1 221:2 255:1 325:1 368:1 392:1 399:1 470:1 500:1 543:1 573:1 674:1 690:1 716:1 717:1 718:1 768:2 1031:1 1074:1 1075:1 1095:1 1548:1 1569:1 1636:1 1817:1 1839:1 1962:1 2024:2 2669:1 2691:1 2714:1 2715:1 2716:1 2717:2 2718:1 2719:1 2720:1 2721:1 2722:1 2723:1 2724:1 2725:1 2726:1 2727:4 2728:1 2729:1 2730:2 2731:1 2732:1 2733:1 2734:1 2735:1 2736:1 2737:1 2738:1 2739:1 2740:1 2741:1 2742:1 2743:1 2744:1 2745:1 2746:1 
0.001558770996439109 0.001446421130553978 0.0007926176146408513 0.002572298437390279 1:15 11:2 14:10 16:8 19:2 22:1 24:4 27:13 29:2 31:3 33:1 38:5 43:3 44:1 45:1 48:9 49:2 61:1 62:4 63:1 71:4 72:1 81:1 82:3 88:2 94:1 95:1 97:1 101:1 110:2 126:7 157:1 161:1 166:1 172:1 175:7 191:1 195:1 213:1 218:3 221:4 233:1 237:1 248:1 255:2 276:1 277:1 288:2 307:1 325:2 334:1 365:1 368:4 376:1 388:1 392:2 396:1 409:1 419:1 455:4 468:2 489:1 500:1 503:1 548:1 557:1 575:3 592:2 594:2 613:1 690:1 707:1 714:1 728:1 736:1 742:1 867:1 872:1 877:1 915:1 930:1 951:1 968:1 984:1 1018:1 1031:2 1070:7 1073:1 1085:1 1103:1 1110:1 1173:2 1316:2 1363:1 1455:1 1466:1 1503:1 1560:1 1575:1 1583:1 1633:1 1637:1 1681:1 1697:1 1758:1 1924:1 2015:1 2038:1 2051:1 2071:1 2131:1 2137:1 2291:1 2425:1 2429:1 2565:1 2585:3 2816:1 2845:1 2846:1 2847:1 2848:1 2849:1 2850:1 2851:1 2852:1 2853:2 2854:1 2855:7 2856:1 2857:1 2858:2 2859:1 2860:1 2861:1 2862:1 2863:1 2864:1 2865:1 2866:1 2867:1 2868:1 2869:1 2870:1 2871:1 2872:1 2873:1 2874:1 2875:1 2876:1 2877:1 2878:1 2879:1 2880:1 2881:1 2882:1 2883:1 2884:1 2885:1 2886:1 2887:1 2888:1 2889:1 2890:2 2891:1 2892:1 2893:1 2894:1 2895:1 2896:1 2897:1 2898:1 2899:1 2900:1 2901:1 2902:1 2903:1 2904:1 2905:1 2906:1 2907:1 2908:1 2909:1 2910:1 2911:1 2912:1 2913:1 2914:1 
0.007551140658327194 0.006160715277203369 0.004652894776827113 0.005575637062928933 1:8 2:1 11:1 14:2 15:1 16:6 19:1 27:11 33:1 38:4 48:4 49:2 59:2 62:4 63:2 71:3 73:1 81:1 82:2 88:1 101:1 110:1 137:1 161:2 191:1 213:1 221:4 235:1 248:1 263:2 325:1 338:1 368:1 388:1 394:1 407:1 419:1 475:2 477:1 484:2 485:1 514:1 517:1 557:1 590:1 595:1 626:1 652:2 663:1 842:1 846:1 960:1 1041:1 1060:1 1255:1 1261:1 1278:1 1372:1 1463:1 1580:1 1709:1 1731:1 1740:1 1892:1 1934:1 1946:1 1993:1 2251:1 2281:1 2291:1 2294:2 2445:1 2484:1 2625:1 2741:1 3154:1 3186:1 3230:2 3231:1 3232:2 3233:4 3234:3 3235:1 3236:1 3237:1 3238:1 3239:1 3240:1 3241:1 3242:1 3243:1 3244:1 3245:2 3246:1 3247:1 3248:2 3249:1 3250:2 3251:1 3252:1 3253:1 3254:1 3255:1 3256:1 3257:1 3258:1 3259:1 
0.01240269283761754 0.01424971240243778 0.0142787727910912 0.01726453943406333 1:2 11:1 14:1 16:2 19:4 24:1 27:7 29:1 38:1 47:1 48:4 49:1 50:1 56:1 62:4 63:1 71:2 81:1 82:1 101:1 110:1 116:1 123:1 126:1 166:1 178:1 191:1 202:1 239:1 259:1 305:2 325:1 330:1 340:1 468:1 530:1 712:1 772:2 1056:1 1075:1 1085:1 1188:1 1240:1 1299:1 1683:1 1721:1 1896:1 2111:4 2610:1 3100:1 3281:3 3282:1 3283:1 3284:1 3285:1 3286:1 3287:1 3288:1 3289:1 3290:1 3291:1 3292:1 3293:1 3294:2 3295:1 3296:1 3297:1 3298:1 
0.0002130892758604911 0.0103832706513423 0.01403879442647988 0.01164600424153596 1:4 5:1 8:1 14:2 16:3 19:2 27:7 29:1 31:6 38:1 43:1 48:1 56:1 58:1 61:1 62:1 63:1 81:1 82:2 87:1 94:1 97:4 127:1 131:1 149:1 215:1 221:3 251:2 277:1 288:1 365:1 374:1 479:1 510:1 553:1 557:1 684:1 796:1 933:2 1389:1 1426:1 1448:1 1575:1 1740:1 1897:1 2000:1 2350:1 2732:2 2970:1 2991:1 3177:1 3325:1 3326:1 3327:2 3328:1 3329:1 3330:1 3331:1 3332:1 3333:2 3334:1 3335:1 3336:1 3337:1 3338:1 
0.01234655101292916 0.01189939523083386 0.01531867403020081 0.009367749106360795 1:1 11:1 14:3 16:4 19:4 27:5 29:2 33:2 38:1 43:1 45:1 47:2 48:1 61:1 62:4 63:2 69:1 71:1 81:1 82:1 97:1 107:1 110:1 123:1 126:1 136:1 171:1 179:1 197:1 221:1 245:1 253:2 255:1 277:1 325:1 343:1 365:1 377:1 385:1 409:1 419:1 427:1 575:1 590:1 600:1 616:1 633:1 644:1 657:1 730:1 743:1 755:1 858:1 867:1 874:1 948:1 951:2 963:1 1028:1 1184:1 1255:1 1527:1 1720:1 1727:1 1812:1 1988:1 2032:1 2354:1 2609:2 2714:1 3063:1 3342:1 3358:2 3359:4 3360:2 3361:1 3362:1 3363:1 3364:1 3365:1 3366:1 3367:1 3368:2 3369:1 3370:1 3371:1 3372:1 3373:1 3374:1 3375:1 3376:1 3377:1 3378:2 3379:1 3380:1 3381:1 3382:1 3383:1 3384:1 3385:1 
0.02958605666927153 0.0307686670961495 0.008591193691995814 0.01516566768682538 1:8 8:1 14:2 16:2 27:3 48:1 49:3 61:3 62:3 63:3 81:1 82:1 88:2 94:1 129:1 137:1 179:1 221:1 242:1 257:1 281:2 308:1 361:1 368:2 396:1 690:1 746:1 748:1 758:1 816:1 830:1 912:1 1050:1 1082:1 1348:1 1560:1 1715:1 1741:1 1946:1 1997:1 2259:1 2279:1 2399:2 2809:1 2986:1 3328:1 3349:1 3363:1 3478:1 3479:1 3480:1 3481:1 3482:1 3483:1 3484:1 3485:1 3486:1 3487:1 3488:1 3489:1 
0.02047660876018578 0.02097256744367008 0.02253748877359938 0.02620824299494994 1:3 14:4 19:1 27:8 48:2 62:2 71:2 81:1 82:1 88:1 106:1 123:1 126:1 161:2 171:2 245:1 248:1 255:1 422:1 484:1 576:1 577:1 578:1 579:1 580:1 581:1 912:1 1073:1 1174:1 1670:1 2139:1 2195:1 2605:1 2969:1 3017:2 3118:1 3429:1 3490:1 3491:1 3492:1 3493:1 3494:1 3495:1 3496:2 3497:1 3498:1 3499:1 3500:1 3501:1 3502:1 3503:1 3504:1 3505:1 3506:1 3507:1 3508:1 
0.009216990283205568 0.006637532152895334 0.01008422406211514 0.01296133108237307 1:4 14:4 16:2 19:2 27:4 38:1 42:1 48:5 57:1 62:5 63:3 71:1 81:1 82:1 101:1 108:1 110:1 158:1 191:1 202:2 211:1 221:1 255:2 325:2 421:1 436:1 467:1 495:1 602:1 603:1 644:1 755:1 769:2 795:1 894:1 980:1 984:1 1031:1 1173:1 1180:1 1255:1 1720:1 2127:1 2320:1 2505:1 2652:2 2914:1 3530:1 3531:1 3532:1 3533:1 3534:2 3535:1 3536:1 3537:1 3538:1 3539:1 3540:1 3541:1 3542:1 3543:1 3544:1 3545:1 3546:1 3547:1 3548:1 3549:1 3550:1 3551:1 3552:1 3553:1 3554:1 3555:1 3556:1 3557:1 3558:1 3559:1 
0.004752587118691265 0.004618025128796292 0.005598307454648371 0.009348400376540432 1:6 5:1 6:1 12:1 14:2 16:5 19:2 24:1 27:9 29:1 31:3 38:4 47:1 48:5 49:3 56:1 62:3 63:1 71:1 81:1 82:1 87:1 88:1 90:1 123:1 125:1 126:1 128:4 161:3 171:1 178:1 192:1 195:1 213:1 221:1 229:1 233:1 251:1 255:1 263:2 266:1 325:1 368:1 371:1 396:1 575:1 790:1 822:1 867:1 967:1 987:1 1023:1 1115:1 1588:1 1668:1 1765:1 1851:1 1877:1 2114:1 2207:1 2290:1 2321:1 2374:1 2410:1 2562:1 2815:1 3109:1 3402:1 3560:1 3561:2 3562:1 3563:1 3564:1 3565:2 3566:1 3567:1 3568:1 3569:1 3570:1 3571:2 3572:1 3573:1 3574:1 3575:1 3576:1 3577:1 3578:1 3579:1 3580:1 3581:1 
0.006764319833978314 0.01327982539602765 0.003393233674923898 0.004185909910726489 1:3 11:1 14:1 16:3 19:3 24:2 27:6 29:1 31:2 33:1 38:4 43:1 48:3 49:1 53:1 56:1 62:5 63:1 65:2 71:3 72:1 81:1 82:1 88:2 97:3 114:1 123:1 124:1 125:1 126:1 167:2 173:1 174:1 179:1 206:1 221:3 251:2 271:1 385:1 388:1 392:1 432:1 442:1 553:1 554:1 575:2 584:1 628:1 762:1 968:1 979:1 1018:1 1188:5 1190:1 1197:1 1255:1 1360:1 1462:1 1489:1 1496:1 1512:1 1839:1 2319:2 2671:1 2700:1 3133:1 3142:1 3143:1 3626:1 3652:1 3653:4 3654:1 3655:2 3656:1 3657:1 3658:1 3659:1 3660:1 3661:1 3662:1 3663:1 3664:1 3665:1 3666:1 3667:1 
0.007168333297004537 0.01262356888290773 0.003820012019895267 0.005055765404993743 1:6 8:1 11:1 14:3 16:4 22:1 23:1 27:6 31:2 33:1 45:1 48:4 56:1 57:1 59:1 61:3 62:3 63:1 64:1 71:2 81:1 82:1 88:1 96:1 97:2 108:1 123:1 125:1 126:1 127:1 128:1 129:1 161:1 166:1 213:1 221:2 233:1 245:1 248:2 277:1 308:1 334:1 338:1 353:1 378:1 396:1 407:1 425:1 442:1 510:1 524:1 561:1 575:1 596:1 634:1 641:1 772:1 793:1 877:1 968:1 1018:1 1058:1 1081:1 1110:1 1255:1 1282:1 1308:1 1309:1 1363:1 1424:1 1693:1 1818:1 1823:1 1836:2 1892:1 1896:1 1897:1 1952:2 2336:1 2399:1 2966:1 3096:1 3473:1 3509:1 3511:2 3516:1 3723:1 3724:1 3725:1 3726:3 3727:1 3728:3 3729:1 3730:1 3731:1 3732:1 3733:1 3734:1 3735:1 3736:1 3737:1 3738:1 3739:1 3740:1 3741:1 3742:1 
0.01113354483784933 0.005878122507126485 0.006055333148269715 0.01084885260604137 1:4 14:2 16:1 19:1 27:9 29:1 32:1 38:1 48:3 49:1 56:1 59:1 62:4 63:1 71:1 81:1 82:2 102:1 123:2 126:1 132:1 161:2 182:2 196:1 221:1 259:1 308:1 318:1 330:1 338:1 343:1 368:1 370:1 455:1 530:1 557:1 668:1 690:1 736:1 830:1 963:1 1247:1 1384:1 1603:1 1720:1 1767:1 2320:1 2462:1 2531:1 2706:1 2834:2 2849:1 2969:1 3103:1 3197:1 3333:1 3767:1 3768:1 3769:1 3770:1 3771:1 3772:1 3773:1 3774:2 3775:1 3776:1 3777:1 3778:1 3779:1 3780:1 3781:1 3782:1 3783:1 3784:1 3785:2 3786:1 3787:1 3788:1 3789:1 3790:1 3791:1 3792:1 3793:1 3794:1 3795:1 
0.008189671844255623 0.01617477022361262 0.009480331363411506 0.01448339958812836 1:2 5:1 11:1 14:1 16:3 19:1 24:1 27:1 29:1 38:1 45:1 47:2 48:3 49:5 61:1 62:2 63:2 81:1 82:2 137:1 172:1 218:1 221:2 442:1 476:1 516:1 701:1 830:1 1035:2 1097:1 1200:1 1270:1 1548:1 1725:1 2487:1 2763:1 3727:1 3740:1 3821:1 3921:3 3922:1 3923:1 3924:1 3925:1 3926:1 3927:2 3928:1 3929:1 3930:1 3931:1 3932:1 3933:1 
0.002202697520317442 0.003084423831516222 0.0013899424320196 0.004417504140369027 1:4 2:1 8:1 11:1 14:13 16:9 17:1 19:1 27:22 29:4 33:2 38:3 43:2 47:1 48:6 49:5 52:1 56:1 57:1 58:1 61:2 62:6 63:4 69:1 71:4 72:2 81:1 82:1 88:2 110:1 127:1 128:4 129:1 138:1 149:1 166:1 191:1 215:1 221:3 248:1 255:3 368:2 381:1 388:1 394:1 396:1 409:1 419:1 473:1 552:2 555:1 557:1 574:3 575:1 590:1 602:1 641:1 645:1 652:1 681:1 690:3 743:1 772:2 855:1 867:1 918:2 978:1 984:4 1030:1 1031:1 1064:1 1117:3 1200:1 1225:1 1234:1 1242:1 1260:1 1268:1 1277:4 1278:1 1292:1 1316:2 1329:1 1486:1 1529:1 1546:1 1569:1 1622:1 1742:1 1810:1 1821:1 1854:1 1896:1 1901:1 2068:1 2148:2 2201:1 2313:2 2458:1 2500:1 2553:1 2732:1 2741:1 2928:1 3049:1 3739:1 4126:1 4163:2 4168:4 4169:1 4170:1 4171:1 4172:1 4173:1 4174:1 4175:1 4176:1 4177:1 4178:1 4179:1 4180:1 4181:1 4182:1 4183:2 4184:1 4185:1 4186:1 4187:1 4188:1 4189:1 4190:1 4191:1 4192:1 4193:1 4194:1 4195:1 4196:1 
0.02306042770464049 0.03405546481232906 0.02963543879094583 0.01799972651005817 1:2 11:1 14:1 16:3 27:1 29:1 42:1 48:2 49:3 62:2 71:1 81:1 82:1 88:1 110:1 123:1 124:1 125:1 126:1 137:1 161:1 166:1 221:1 396:1 419:1 523:1 557:1 668:2 683:1 690:1 762:1 862:1 877:2 921:1 1051:1 1141:1 1316:1 1495:1 1529:1 2259:1 2491:1 3142:1 3143:1 3975:1 3991:1 4427:1 4428:1 4429:1 4430:1 
0.008227470206859116 0.006851168752473637 0 0.004520657499590547 1:5 14:1 16:4 19:1 24:1 27:3 29:4 30:1 33:2 38:5 43:1 44:1 47:1 48:3 49:1 56:2 62:4 64:1 81:1 82:1 88:2 90:1 110:3 123:1 124:1 125:1 126:1 157:1 206:2 209:1 221:3 269:1 277:1 288:2 396:1 403:1 442:1 591:1 600:2 729:1 762:1 860:1 1003:1 1051:1 1085:1 1120:1 1240:1 1286:1 1439:1 1823:1 1861:1 1884:1 1902:1 2123:2 2394:1 2402:1 2667:1 2721:1 3007:1 3071:1 3142:1 3143:1 3151:2 3338:1 3405:1 3531:1 3551:1 3633:1 3729:1 3798:1 3803:1 4284:2 4418:1 4462:1 4463:1 4464:1 4465:3 4466:1 4467:1 4468:1 4469:1 4470:1 4471:1 4472:1 4473:1 4474:1 4475:1 4476:1 4477:1 4478:1 4479:1 4480:1 4481:1 
8.970233988316881e-05 0 0.001107493621201857 0.0002155102243886996 1:3 14:4 16:9 19:1 22:1 23:1 24:1 27:16 29:2 33:1 38:4 42:2 46:1 47:3 48:10 49:7 62:8 63:6 72:2 81:1 82:4 87:2 88:2 94:1 97:1 108:1 131:5 137:1 143:1 157:1 161:2 165:1 166:1 179:1 195:2 202:1 218:1 221:2 233:1 251:3 252:1 257:1 271:1 325:4 374:1 388:1 500:3 501:1 548:1 557:1 600:2 685:1 690:1 701:1 822:1 830:2 841:1 858:3 877:1 882:1 933:1 990:1 1018:1 1031:2 1039:1 1074:1 1076:1 1083:1 1135:1 1184:1 1249:1 1255:1 1356:1 1424:1 1427:1 1465:1 1527:1 1632:2 1640:1 1668:1 1670:1 1697:1 1797:1 1888:1 1961:3 2290:1 2415:1 2503:1 2786:1 2788:1 3026:1 3041:5 3248:1 3818:1 3881:1 3958:1 4572:1 4573:16 4574:1 4575:6 4576:1 4577:7 4578:7 4579:1 4580:1 4581:1 4582:1 4583:2 4584:1 4585:1 4586:1 4587:2 4588:1 4589:1 4590:1 4591:1 4592:1 4593:1 4594:1 4595:1 4596:1 4597:1 4598:1 4599:1 4600:1 4601:1 4602:1 4603:1 4604:1 4605:1 4606:1 4607:1 4608:1 4609:1 4610:1 
0.0173518792763647 0.01016670144938049 0.0144855226400793 0.005394750377254383 1:3 15:1 16:2 27:2 29:2 38:6 43:1 47:2 48:2 49:1 56:1 61:3 62:2 81:1 82:2 97:3 104:1 137:1 239:1 368:2 372:1 531:1 704:1 705:1 728:1 743:1 834:1 968:1 987:2 1056:1 1060:1 1062:1 1135:1 1487:1 2197:1 2402:1 2478:1 2621:1 3076:1 3803:1 3934:1 4141:1 4613:1 4614:1 4685:3 4686:1 4687:1 4688:3 4689:1 4690:1 4691:1 4692:1 4693:1 4694:1 4695:1 4696:1 4697:1 4698:1 
0.01348502990328232 0.0105103840052734 0.01115694728063034 0.0129397467141142 1:5 11:4 14:3 15:1 16:4 19:1 27:11 33:2 38:3 43:1 48:4 56:2 61:1 62:1 65:1 71:1 81:1 82:2 101:1 106:1 110:1 118:1 149:1 221:2 248:3 255:2 305:1 325:3 388:4 396:1 403:1 594:1 595:1 633:1 743:1 746:1 747:1 748:1 772:1 846:1 877:2 880:1 955:1 984:1 1187:1 1257:1 1270:1 1302:2 1455:1 1548:1 1824:1 1913:1 1943:3 1952:1 1995:1 1996:1 2015:1 2350:1 2374:1 2477:1 2497:1 2693:1 3070:1 3169:1 3202:1 4015:1 4233:1 4699:1 4700:1 4701:1 4702:1 4703:1 4704:1 4705:1 4706:1 4707:1 4708:1 4709:1 4710:1 4711:1 4712:1 4713:1 4714:1 4715:1 
0.02160880430314075 0.01780589716100978 0.02013065703041101 0.01284687749714945 1:2 16:2 19:2 27:3 29:1 38:3 42:1 47:1 48:2 49:2 58:1 62:4 63:1 64:1 81:1 82:1 88:1 90:1 96:1 110:1 123:1 126:1 213:1 218:1 239:1 245:1 248:1 266:1 325:1 370:1 442:1 509:1 512:1 530:1 565:1 659:1 816:1 860:1 877:1 895:1 970:1 1321:1 1496:1 1620:1 1719:1 1768:1 1804:1 2142:1 2606:1 2801:1 3052:1 3151:1 3296:1 3297:1 3298:1 3612:1 4773:2 4774:1 4775:1 4776:1 4777:1 4778:1 4779:1 4780:2 4781:1 4782:1 
0.02291056523568944 0.02434840241673013 0.02921839693576915 0.02038274532957117 1:1 14:3 16:2 27:5 29:1 38:2 47:1 48:3 49:2 56:1 57:1 58:1 61:1 71:1 81:2 82:2 106:1 166:1 172:1 191:1 203:1 221:2 245:1 257:1 377:1 442:1 484:1 548:1 553:1 574:1 575:1 594:1 628:1 1062:1 1072:1 1475:1 1670:1 1717:1 1825:1 1851:1 3509:1 3690:1 3941:1 4410:1 4418:1 4465:1 4852:1 4853:1 4854:1 4855:1 4856:1 4857:1 4858:1 4859:1 4860:1 4861:1 4862:1 4863:1 4864:1 4865:1 
0.009676920350902479 0.008916124670763954 0.01031282646659668 0.01232974067927374 1:3 14:1 16:2 24:2 27:8 40:1 46:1 47:1 48:7 62:2 71:1 81:1 82:1 94:1 102:1 123:2 124:1 125:1 126:1 161:2 182:1 221:1 233:1 251:1 271:1 288:1 318:1 378:1 388:1 394:1 423:1 557:1 762:1 830:1 882:1 1033:1 1255:1 1511:1 1690:1 1694:1 1993:1 1994:1 2350:1 2458:1 2776:1 2840:1 3142:1 3143:1 3333:1 3453:1 3771:2 3772:2 3773:1 3774:1 3776:1 3777:1 3778:1 3782:1 3783:1 3785:1 3788:2 3997:1 4235:1 5062:1 5063:1 5064:1 5065:1 5066:1 5067:1 5068:1 5069:1 
0.007417440243832506 0.005812622551784893 0.003623285108822152 0.006188039780200772 1:5 5:1 14:1 16:4 19:2 22:1 24:1 27:11 29:4 33:2 38:3 42:1 44:1 47:1 48:4 49:2 61:1 62:1 63:1 71:1 81:1 82:3 88:2 110:1 128:1 161:3 178:1 202:1 213:2 218:1 248:1 271:1 281:1 394:1 476:1 500:1 600:1 652:3 680:1 790:1 858:1 860:1 1028:2 1056:1 1074:1 1085:1 1146:1 1180:1 1363:1 1529:1 1548:1 1580:1 1911:1 1945:1 1952:1 1978:1 2131:1 2216:1 2226:1 2259:1 2397:1 2615:1 2859:1 3093:1 3395:1 3757:1 3786:1 3835:1 4119:2 4279:1 4471:1 5110:4 5111:1 5112:1 5113:1 5114:1 5115:2 5116:1 5117:1 5118:1 5119:2 5120:1 5121:1 5122:1 5123:1 5124:1 5125:1 5126:1 5127:1 5128:1 5129:1 5130:1 5131:1 
0.01086917318076628 0.01111997540801725 0.00792322945321183 0.01062882482735636 1:2 14:1 16:2 19:1 24:1 27:1 29:5 30:1 38:2 43:1 45:2 46:1 47:1 49:1 56:1 62:3 63:2 81:1 82:1 101:1 149:1 157:1 158:1 161:2 279:1 325:2 372:1 398:1 437:1 517:1 600:2 975:1 1031:1 1096:2 1340:1 1441:1 1812:1 1875:1 2294:1 2881:1 4379:1 4867:1 5208:1 5209:2 5210:4 5211:1 5212:1 5213:1 5214:1 5215:1 5216:1 5217:1 5218:1 5219:1 5220:1 5221:1 
0.01796415065819922 0.01655792631164556 0.01942937656039009 0.03003668583142021 1:2 2:1 16:1 27:3 33:1 38:1 48:2 62:2 65:1 71:1 81:1 82:3 96:1 123:1 126:1 128:1 221:1 239:1 245:1 255:2 403:2 423:1 477:1 530:1 548:1 595:1 753:2 874:1 968:1 1179:1 1823:1 1979:1 2629:1 3296:1 3297:1 3298:1 3761:1 4019:1 4768:1 5302:2 5303:1 5304:1 
0.01093679162427625 0.02337165352938363 0.02391354267527792 0.02492025599613338 1:2 14:1 16:3 27:1 29:3 31:3 47:1 48:1 49:3 52:1 53:1 81:1 82:1 118:1 129:1 149:1 161:1 172:1 325:2 368:1 563:1 702:1 720:1 1049:1 1097:1 1708:1 1750:1 2434:1 2699:1 3278:1 3484:1 3626:1 4263:1 4622:1 5305:1 5306:1 5307:1 5308:1 5309:1 5310:1 5311:1 5312:1 
0.005763253358466193 0.006244423908629657 0.006479707194827379 0.004498352587641859 1:7 14:2 16:5 19:2 27:6 29:3 38:2 43:1 47:1 48:4 49:3 56:2 61:1 62:2 63:1 71:1 81:1 82:2 149:1 157:1 161:2 178:1 182:1 191:1 206:1 213:2 236:1 279:1 325:1 368:1 409:1 500:1 563:1 593:1 638:1 664:1 690:2 721:1 778:1 881:1 915:1 969:1 1015:1 1051:1 1184:1 1232:1 1316:1 1367:1 1560:1 1615:1 1884:1 1943:2 2374:1 2500:1 2658:1 2814:1 2969:1 3005:1 3040:1 3288:1 3704:1 4021:1 4278:1 4488:1 4662:1 5106:1 5328:1 5329:1 5330:3 5331:1 5332:1 5333:1 5334:2 5335:2 5336:1 5337:1 5338:1 5339:1 5340:1 5341:1 5342:1 5343:1 5344:1 5345:1 5346:1 5347:1 5348:1 5349:1 5350:1 5351:1 5352:1 5353:1 5354:1 5355:1 5356:1 5357:1 5358:1 5359:1 
0.04005737337242325 0.03926500332362775 0.02866532748814624 0.03300130786014758 1:2 2:1 14:2 16:3 19:1 27:1 38:3 49:4 62:2 81:1 82:3 110:1 123:1 126:1 149:1 191:1 259:1 325:1 353:1 388:1 476:1 478:1 581:1 636:1 659:1 790:1 921:2 979:1 1182:1 1183:1 1200:1 1339:1 1348:1 1427:1 1772:1 2585:1 2624:1 3043:1 3561:1 3596:1 5360:1 5361:1 5362:1 5363:1 5364:1 5365:1 5366:1 5367:1 5368:1 5369:1 
0.001619942915840401 0.002615752786208162 0.006286381943127924 0.0008855826035922582 1:12 14:2 16:5 19:2 22:1 23:2 24:1 27:14 29:1 31:2 38:2 42:1 43:1 44:1 45:1 46:1 47:6 48:7 52:1 56:1 59:1 61:3 62:5 63:1 81:1 82:5 88:3 94:2 97:1 120:1 123:1 126:1 161:1 182:1 195:1 213:1 221:4 248:2 334:1 368:1 512:1 514:1 543:1 557:1 574:1 581:1 615:1 713:1 737:1 738:2 739:1 740:1 874:1 951:1 1062:1 1124:1 1136:1 1180:1 1184:1 1417:1 1438:3 1442:1 1488:1 1519:1 1725:1 2003:1 2610:1 2667:1 2783:1 2801:1 2856:1 3247:1 3565:2 3646:1 3704:1 3768:1 3839:1 4080:1 4108:1 4170:1 4180:3 4181:1 4465:4 4488:1 4767:1 4886:1 5315:1 5403:1 5404:2 5405:5 5406:1 5407:1 5408:2 5409:1 5410:1 5411:1 5412:1 5413:1 5414:1 5415:1 5416:1 5417:1 5418:1 5419:1 5420:1 5421:1 
0.01594756393291622 0.02277138788010231 0.02324774186563689 0.01964500913598308 1:2 9:1 11:1 16:2 19:1 27:1 48:3 49:1 62:4 63:2 72:1 81:1 82:1 88:3 161:2 166:1 213:1 218:2 221:1 247:1 253:1 255:2 282:1 334:1 388:1 419:3 500:1 890:1 962:1 1025:1 1031:1 1097:1 1243:1 1417:1 1626:1 1741:1 2088:1 2343:1 2445:1 2516:1 2621:1 2661:1 3001:1 4173:1 4333:1 4625:1 4811:1 5422:1 5423:1 5424:1 5425:1 5426:1 5427:1 5428:1 5429:1 5430:1 5431:1 5432:1 5433:1 5434:1 5435:1 5436:1 5437:1 5438:1 5439:2 5440:1 5441:1 5442:1 5443:1 
0.03144171140042971 0.03705539034138915 0.0287876287381722 0.03583094414346344 1:4 2:1 16:1 19:1 27:3 29:1 48:1 49:1 62:1 63:1 81:1 82:1 97:1 161:1 163:1 298:1 325:1 368:1 369:1 471:1 685:1 742:1 743:1 942:1 1121:1 1179:1 1768:1 1988:1 2321:1 2445:1 2872:1 3325:1 3342:1 3798:1 3985:1 4448:1 4581:1 5537:1 5538:1 5539:1 5540:1 
0.01338909297132873 0.01601004645506848 0.01052560855374454 0.007286655254656223 1:6 9:2 14:2 16:6 19:3 20:1 21:1 24:1 27:5 29:3 32:1 38:2 45:1 48:2 49:1 53:1 57:1 61:1 81:1 82:1 88:1 161:1 166:1 191:1 202:1 213:1 239:1 251:1 307:1 368:1 381:1 437:1 468:1 496:1 574:1 678:1 685:1 874:1 975:1 1023:1 1030:1 1031:1 1338:1 1417:1 1420:1 1693:1 1845:1 1880:1 2792:1 3092:1 3233:1 3711:1 3859:1 4653:1 4689:1 4822:1 5528:1 5529:3 5553:1 5554:1 5555:1 5556:1 5557:1 5558:1 5559:1 5560:1 5561:1 5562:1 5563:1 5564:2 5565:1 5566:1 5567:1 5568:1 5569:1 5570:1 5571:1 5572:1 5573:1 
0.02038773149671696 0.01924039340301305 0.01201903878262465 0.0172494932567097 1:3 19:4 24:1 27:4 29:5 38:5 47:1 48:3 49:1 56:2 61:1 62:2 81:1 82:1 108:1 110:1 123:1 125:1 126:1 129:2 180:1 191:1 217:1 218:1 221:2 251:1 252:1 255:2 325:1 377:1 388:1 419:1 512:1 517:1 574:1 594:1 690:2 701:1 732:1 882:1 918:1 979:1 984:1 1200:1 1282:1 1316:1 1560:1 1577:1 1583:1 1720:1 1886:1 2155:2 2516:1 2584:1 2629:1 2983:1 3363:1 4228:1 5718:3 5719:1 5720:1 5721:1 5722:1 5723:1 5724:1 5725:1 5726:1 5727:1 
0.02472437040663411 0.02898052875446598 0.02719632102692933 0.02072537585562399 1:1 14:1 16:2 19:2 27:5 38:1 48:1 49:1 62:2 81:1 82:1 90:1 161:1 171:1 172:1 255:1 385:1 442:1 460:1 494:1 516:1 877:1 1070:1 1489:1 1717:1 1823:1 2049:1 2445:1 2751:1 2776:1 3057:1 3069:1 3649:1 3823:1 4300:1 4309:1 4310:1 4312:1 4324:1 4396:1 5736:1 5737:1 5738:1 5739:1 5740:1 5741:1 5742:1 5743:1 
0.003909300494241612 0.008410247791084915 0.00665411374945124 0.002964491957992597 1:2 14:2 16:7 27:10 29:2 38:3 44:1 47:2 48:5 49:7 61:1 62:2 65:1 81:1 82:2 129:1 149:2 165:1 179:2 251:3 257:1 266:1 271:1 303:1 316:2 325:2 353:1 524:1 594:1 701:1 790:1 830:2 854:1 921:2 1031:1 1064:1 1107:1 1115:1 1356:1 1392:1 1441:1 1725:1 1746:1 2006:1 2034:1 2577:1 2849:2 2903:1 2983:1 3136:1 3307:1 3339:1 3473:1 3491:1 3906:1 4112:1 4129:1 4190:1 4649:3 5563:1 5806:2 5807:1 5808:1 5809:1 5810:1 5811:1 5812:1 5813:1 
0.0116249910608655 0.005230718948485626 0.01100358106421896 0.003986397923523208 1:6 8:1 11:2 14:2 16:7 19:5 24:1 27:8 31:2 33:2 38:2 43:2 44:1 48:6 61:2 62:4 63:4 81:1 82:1 97:2 108:2 110:1 158:1 161:1 163:1 178:1 180:2 195:2 200:1 202:2 213:1 245:1 263:1 269:1 368:1 388:1 392:1 396:2 419:3 460:2 475:1 484:1 500:1 522:2 548:1 557:1 614:1 628:1 690:1 702:1 729:1 786:1 796:1 797:1 811:1 1003:2 1014:1 1027:1 1028:2 1098:2 1180:1 1243:1 1342:1 1458:2 1489:1 1529:1 1614:1 1620:1 1821:1 1866:1 2343:1 2350:1 2542:1 2621:1 2689:1 2745:1 2763:1 3231:1 3279:1 3454:1 3647:1 3798:1 5081:1 5442:1 5503:1 5637:1 5814:2 5815:3 5816:1 5817:1 5818:1 5819:1 5820:2 5821:1 5822:1 5823:1 5824:2 5825:1 5826:1 5827:1 5828:1 5829:1 5830:1 
0.009985784711061691 0.006140177291250309 0.002080381934554316 0.01640496734752487 1:12 8:1 13:1 14:3 16:5 19:4 24:1 27:4 29:2 47:1 48:5 49:1 56:2 57:1 62:5 63:3 81:1 82:2 87:1 97:2 110:1 123:1 125:1 126:1 164:1 202:1 221:4 237:1 245:1 251:1 334:1 353:1 436:1 557:1 558:1 575:1 725:1 860:1 896:1 999:1 1018:1 1053:1 1110:1 1226:1 1282:1 1381:2 1427:1 1470:1 1548:1 1740:1 1822:1 1859:1 1911:1 1926:1 1948:1 1952:1 2359:2 2595:2 2658:1 2742:1 2864:1 2903:1 3093:1 3742:1 3824:1 4680:2 4738:1 5417:1 5607:1 5934:1 5935:1 5936:1 5937:1 5938:1 5939:2 5940:2 5941:1 5942:1 5943:1 5944:1 5945:1 5946:1 5947:1 5948:1 5949:1 5950:1 5951:1 5952:1 
0.003750677202565135 0.003896005157029077 1.082307206642969e-07 0.00752407325495451 1:2 14:10 16:6 19:2 24:1 27:21 38:1 42:1 43:3 48:7 49:5 56:1 58:3 61:1 62:12 63:5 81:1 82:1 87:1 88:2 90:1 101:1 110:1 128:1 157:1 161:1 170:1 171:1 178:1 180:1 195:1 196:1 218:1 251:1 253:1 254:1 294:1 368:2 377:1 388:1 396:1 422:1 471:1 500:1 557:3 558:2 593:1 641:1 648:1 690:2 725:1 782:1 832:1 915:1 921:8 935:1 937:3 1041:3 1069:1 1075:1 1115:1 1136:1 1180:1 1184:1 1188:5 1292:2 1301:1 1348:1 1412:1 1543:1 1588:1 1657:1 1752:1 1812:1 2000:1 2015:1 2262:1 2331:1 2491:2 2643:2 2745:1 2785:1 2990:1 3190:1 3231:1 3443:1 3491:1 3803:1 3839:1 4042:2 4082:1 4465:1 4790:1 4980:2 5086:1 5830:1 5953:1 5954:1 5955:1 5956:1 5957:1 5958:1 5959:1 5960:1 
0.01609927208340598 0.01602325207661501 0.01953549320844278 0.01785053942988424 1:1 11:1 14:3 16:3 19:1 27:3 48:1 53:1 62:1 81:1 82:1 128:1 158:1 172:1 179:1 192:1 211:1 221:1 248:1 255:1 377:1 412:1 419:1 448:1 479:1 531:1 992:1 1023:1 1027:1 1097:1 1170:1 1261:1 1293:1 1309:1 1839:1 3094:1 3151:1 3279:1 3693:1 4172:1 4375:1 4645:1 4730:4 4864:1 5961:1 5991:1 5992:1 5993:2 5994:1 5995:1 5996:1 5997:1 5998:1 5999:1 6000:1 6001:1 6002:1 6003:1 6004:1 6005:1 6006:1 
-0.02607215203407169 0.02808965208509156 0.02486329619500052 0.02451883259800046 1:1 14:2 16:5 19:2 24:1 27:5 33:1 40:1 43:1 47:1 48:1 49:1 56:1 62:1 63:1 81:1 82:1 88:1 165:1 202:2 206:1 213:1 218:2 221:1 229:1 230:1 231:1 232:1 233:1 234:1 235:2 236:1 237:1 238:2 239:1 240:1 241:1 242:1 243:1 244:1 245:1 246:1 247:1 248:1 249:1 250:1 251:1 252:1 253:1 254:1 255:1 256:1 257:1 258:1 259:1 260:1 261:1 262:1 263:1 264:1 265:1 266:1 267:1 268:1 269:1 270:1 271:1 272:1 
-0.00890770939233443 0.005240615656358743 0.002022889178611371 0.002647515603101379 1:7 9:1 14:10 15:1 16:11 19:3 24:1 27:21 29:6 38:4 45:3 47:1 48:8 49:5 56:1 61:1 62:6 63:4 65:2 71:6 72:1 81:1 82:2 90:1 91:1 101:2 106:1 107:1 110:2 112:1 120:1 131:1 155:1 157:1 161:3 165:1 171:5 179:2 191:1 197:1 202:1 209:1 213:1 218:1 221:1 248:2 255:1 257:1 262:1 263:1 308:1 314:1 315:1 316:2 317:1 318:1 319:5 320:3 321:1 322:1 323:1 324:1 325:2 326:1 327:1 328:1 329:4 330:1 331:1 332:1 333:1 334:1 335:1 336:1 337:3 338:3 339:1 340:1 341:1 342:1 343:2 344:1 345:1 346:1 347:1 348:1 349:3 350:1 351:1 352:3 353:2 354:2 355:1 356:2 357:2 358:1 359:1 360:1 361:1 362:1 363:1 364:1 365:1 366:2 367:1 368:1 369:1 370:1 371:1 372:1 373:1 374:3 375:1 376:1 377:1 378:1 379:1 380:4 381:2 382:1 383:1 384:1 385:1 386:1 387:1 388:3 389:1 390:1 391:1 392:1 393:1 394:1 395:1 396:1 397:2 398:1 399:1 400:1 401:1 402:1 403:1 404:1 405:1 406:1 407:1 408:1 409:1 410:1 411:1 412:1 413:1 414:1 415:1 416:1 417:1 418:1 419:2 420:1 421:1 422:1 423:1 424:1 425:1 426:1 427:1 428:1 429:1 430:1 431:1 432:1 433:1 434:1 435:1 436:1 437:1 438:1 439:1 440:1 441:1 
-0.006344788559103045 0.01146926917744639 0.01262775246950476 0.004068797665366386 1:3 2:2 11:1 12:1 14:4 16:7 19:5 20:1 24:2 27:13 29:1 30:1 33:1 38:4 43:2 48:6 49:1 56:1 61:1 62:3 63:2 71:2 81:1 82:3 88:1 108:1 129:2 161:1 171:1 172:1 197:1 213:1 267:1 274:1 279:1 301:1 303:1 305:1 322:1 325:1 370:1 388:1 419:2 437:1 442:1 469:1 471:2 476:1 479:1 574:1 633:1 690:1 695:1 741:1 742:2 743:3 744:1 745:1 746:1 747:2 748:1 749:3 750:1 751:1 752:1 753:2 754:2 755:1 756:1 757:1 758:1 759:2 760:1 761:1 762:2 763:1 764:1 765:1 766:1 767:1 768:1 769:1 770:1 771:1 772:2 773:1 774:1 775:1 776:1 777:1 778:2 779:1 780:1 781:1 782:1 783:1 784:1 785:1 786:1 787:1 788:1 789:1 790:1 791:1 792:1 793:1 794:1 795:1 796:1 797:1 798:1 
-0.02138770843037092 0.01759748742481371 0.01741820473880086 0.02055389647062284 1:1 14:1 16:1 27:2 43:1 45:1 48:4 49:3 57:1 58:1 59:1 61:1 62:4 63:1 71:1 81:1 82:1 101:1 108:1 123:1 126:1 151:1 157:1 221:1 259:1 370:1 396:1 563:1 568:1 574:1 659:1 690:1 825:1 848:1 877:1 903:1 905:1 906:1 907:1 908:1 909:1 910:1 911:1 912:1 913:1 914:1 915:1 916:1 917:1 918:1 919:1 920:1 921:1 922:1 923:1 924:1 925:1 926:1 927:1 928:1 929:1 930:1 931:1 932:1 933:1 934:1 935:1 936:1 937:2 938:1 939:1 940:1 941:1 
-0.01123325359822819 0.01875051751829537 0.01586010133306118 0.01745522804103691 1:8 14:2 16:1 19:1 33:1 38:1 47:1 48:3 62:2 71:1 81:1 82:2 88:1 123:1 125:1 126:1 179:1 221:1 235:1 318:1 388:1 419:2 451:1 474:1 510:1 557:1 905:1 982:1 983:1 984:1 985:1 986:1 987:1 988:1 989:1 990:1 991:1 992:1 993:1 994:1 995:1 996:1 997:1 998:1 999:1 1000:1 1001:1 1002:1 1003:1 1004:1 1005:1 1006:1 1007:1 1008:1 1009:1 1010:1 1011:1 1012:1 
-0.01370718476423649 0.01714139102195341 0.01306007618144195 0.01542137469225685 1:3 11:1 12:1 14:4 16:1 19:2 27:6 31:1 33:2 48:4 49:2 64:1 71:1 81:1 82:1 88:1 108:1 111:1 112:1 113:1 195:2 221:1 305:1 388:1 425:1 471:1 648:1 662:1 716:1 717:1 718:1 796:1 830:1 1056:1 1121:1 1344:1 1345:1 1346:3 1347:1 1348:1 1349:2 1350:1 1351:3 1352:1 1353:1 1354:1 1355:1 1356:1 1357:2 1358:1 1359:1 1360:1 1361:1 1362:1 1363:1 1364:1 1365:1 1366:1 1367:1 1368:1 1369:1 1370:1 1371:1 
-0.01185860714893968 0.009585687101235594 0.004522392385927568 0.01078149831503563 1:3 8:1 11:5 14:3 16:5 19:2 27:9 31:1 33:1 38:2 43:1 48:7 49:1 52:1 56:1 61:1 62:2 63:1 65:3 81:1 82:2 88:1 96:1 110:3 161:2 218:1 221:1 245:2 248:1 254:1 295:1 305:1 307:1 353:1 368:1 370:1 396:2 419:1 423:1 442:1 477:1 569:1 653:1 721:1 746:1 984:2 1028:2 1050:1 1117:1 1120:1 1187:2 1229:1 1261:1 1316:1 1338:1 1450:1 1510:1 1538:1 1539:1 1540:2 1541:1 1542:1 1543:1 1544:2 1545:2 1546:1 1547:1 1548:1 1549:1 1550:1 1551:1 1552:1 1553:2 1554:1 1555:1 1556:1 1557:1 1558:1 1559:1 1560:1 1561:1 1562:1 1563:1 1564:1 1565:1 1566:1 1567:1 1568:1 1569:1 1570:1 1571:1 1572:1 1573:1 1574:1 1575:1 1576:1 1577:1 1578:1 1579:1 1580:1 
-0.01960746935901232 0.01405808578161273 0.01394262456860715 0.00943807327972491 1:5 8:1 14:1 16:2 19:1 27:3 29:1 38:3 61:2 62:5 63:1 64:1 81:1 82:2 87:1 123:1 126:1 221:1 245:1 500:1 575:1 581:1 600:1 663:1 690:1 728:1 739:1 793:1 874:1 978:1 1028:1 1045:1 1226:1 1448:1 1475:1 1537:1 1658:2 1659:1 1660:1 1661:1 1662:1 1663:1 1664:1 1665:1 1666:1 1667:1 1668:1 1669:1 1670:1 1671:1 1672:1 1673:1 1674:1 1675:1 1676:1 1677:1 1678:1 
-0.0196275969786266 0.01807383987622857 0.01447741516667905 0.01560553830411932 1:4 2:1 11:4 16:4 19:1 27:2 47:1 48:4 49:1 56:1 58:2 61:1 62:3 63:1 69:1 81:1 82:1 87:1 96:1 121:2 122:1 123:1 124:1 125:1 126:2 161:2 221:1 245:1 368:1 388:1 419:3 449:1 471:1 548:1 557:1 558:1 630:1 663:1 693:1 725:1 729:1 955:1 1243:1 1464:1 1483:1 1685:1 1749:1 1830:2 1831:1 1832:1 1833:1 1834:1 1835:1 1836:3 1837:1 1838:1 1839:1 1840:1 1841:1 1842:1 1843:1 1844:1 1845:1 1846:1 1847:1 1848:1 1849:1 1850:2 1851:1 1852:1 1853:1 1854:1 1855:1 
-0.01577625576489146 0.01337948869182295 0.01990659680947313 0.01498197352793524 1:4 9:1 14:5 16:3 19:1 27:7 43:1 48:1 61:1 62:2 67:1 81:1 82:2 88:1 96:1 106:2 110:1 123:1 126:1 330:1 343:1 368:1 388:1 419:1 530:1 685:1 951:1 963:1 1070:1 1085:1 1163:1 1164:1 1173:3 1299:1 1448:1 1668:2 1742:1 1765:1 1804:1 1939:1 1944:1 1964:1 1965:1 1966:1 1967:1 1968:2 1969:1 1970:1 1971:1 1972:1 1973:1 1974:1 1975:1 1976:1 1977:1 1978:1 1979:1 1980:1 1981:1 1982:1 1983:1 1984:1 
-0.0432479601422031 0.03835326900858831 0.03731821346077099 0.03575524431353458 1:3 8:2 16:1 19:2 27:2 31:1 38:1 47:1 48:2 62:4 63:2 71:1 81:1 82:1 123:1 126:1 129:1 149:1 164:1 221:2 239:1 280:1 428:1 575:1 581:1 704:1 874:1 921:1 987:1 1018:1 2003:2 2004:1 2005:1 2006:1 2007:1 2008:1 2009:2 2010:1 2011:1 2012:1 
-0.01322873953930503 0.01360142628891842 0.01041051090900007 0.01009509261647075 1:3 14:1 15:1 16:3 19:1 24:2 27:8 29:1 31:2 33:1 38:5 43:1 45:1 49:1 61:2 62:3 81:1 82:1 88:1 97:3 123:1 125:1 126:1 129:2 137:1 171:3 221:2 248:3 252:1 286:1 325:1 339:1 368:1 380:1 449:1 476:2 500:1 557:1 669:1 684:1 703:1 724:1 725:1 797:1 874:1 942:1 987:1 1031:1 1117:1 1184:1 1316:2 1348:1 1602:1 1883:1 1897:1 1995:1 2067:4 2068:1 2069:1 2070:1 2071:1 2072:1 2073:1 2074:1 2075:2 2076:1 2077:1 2078:2 2079:1 2080:1 2081:1 2082:1 2083:1 2084:1 2085:1 2086:1 2087:1 2088:1 2089:1 2090:1 2091:1 
-0.009100913404733584 0.02587026608959296 0.02493405542983962 0.02230705299097806 1:1 14:7 16:1 19:6 22:1 27:10 29:1 48:2 49:2 56:2 81:1 82:4 88:1 102:1 129:1 170:1 180:1 255:1 271:1 353:1 359:1 377:1 510:1 531:1 575:1 593:1 594:1 630:1 790:1 877:1 882:1 921:1 1182:1 1201:1 1272:1 1381:1 1461:1 1466:1 1816:1 2134:1 2135:1 2136:1 2137:1 2138:1 2139:1 2140:1 2141:1 2142:1 2143:1 2144:1 2145:1 2146:1 2147:1 2148:1 2149:1 2150:1 2151:1 2152:1 2153:1 2154:1 2155:1 2156:1 2157:1 2158:1 2159:1 2160:1 2161:1 2162:1 2163:1 2164:1 2165:1 2166:1 
-0.008313819332316702 0.01846938013318129 0.01408942400296884 0.01091067633732094 1:2 2:1 11:1 14:1 16:2 19:2 31:2 38:3 43:1 48:1 56:1 61:1 62:1 63:1 69:1 81:1 82:1 161:1 174:1 179:1 205:1 218:1 251:1 257:1 299:1 325:1 370:1 418:1 500:1 512:1 524:1 633:1 635:1 933:1 1449:1 1662:1 1805:1 1888:1 1901:2 2305:3 2306:4 2307:1 2308:1 2309:1 2310:1 2311:1 2312:1 2313:1 2314:1 2315:1 2316:1 2317:1 2318:1 2319:1 
-0.007830582898105768 0.01017661156071546 0.007617192332108697 0.01285678409931863 1:3 2:1 8:1 14:3 16:2 19:2 27:4 29:3 31:1 33:2 38:4 43:1 47:1 48:3 56:2 61:1 62:4 63:2 81:1 82:3 97:1 179:1 213:1 218:1 221:1 327:2 328:2 409:1 445:1 500:1 553:1 600:1 628:1 812:2 816:2 834:1 943:1 952:1 1025:1 1060:1 1184:2 1580:1 1697:1 1840:1 2286:1 2367:1 2368:2 2369:2 2370:1 2371:1 2372:1 2373:1 2374:2 2375:1 2376:3 2377:1 2378:1 2379:1 2380:1 2381:1 2382:1 2383:1 2384:1 2385:1 2386:1 2387:1 2388:1 2389:1 2390:1 2391:1 2392:1 2393:1 
-0.009670429620120886 0.00586855103749256 0.004467478871551424 0.006626583333708189 1:6 14:6 16:6 19:1 27:8 29:3 31:1 33:2 38:3 44:1 47:2 48:3 49:5 58:1 62:2 63:2 69:1 71:1 81:1 82:2 88:4 90:2 97:1 110:1 118:1 151:1 157:1 172:1 197:1 202:1 213:1 218:1 221:1 233:1 248:1 325:2 343:1 368:1 386:1 423:1 481:1 487:1 499:1 512:1 541:1 563:2 616:1 633:1 663:1 793:1 804:1 830:1 832:1 877:2 1028:1 1060:1 1073:1 1135:1 1202:1 1249:1 1302:1 1316:1 1339:1 1360:1 1424:1 1435:1 1501:1 1507:1 1609:1 1662:1 1720:1 1812:1 1911:1 1974:1 1976:1 2249:1 2394:1 2395:1 2396:5 2397:1 2398:3 2399:2 2400:1 2401:1 2402:1 2403:1 2404:1 2405:1 2406:1 2407:1 2408:1 2409:1 2410:1 2411:1 2412:2 2413:1 2414:1 2415:1 2416:2 2417:2 2418:2 2419:1 2420:1 2421:1 2422:1 2423:1 2424:1 2425:1 2426:1 2427:1 2428:1 2429:1 2430:1 2431:1 2432:1 2433:1 2434:1 
-0.01270825307383462 0.004866179570978827 0.008788969371526604 0.003367450244084246 1:6 5:1 11:1 14:1 16:4 19:5 21:1 22:3 27:4 29:6 38:2 48:4 49:1 53:1 55:1 62:2 71:1 81:1 82:1 161:1 162:1 221:1 248:2 251:1 255:1 259:2 271:1 276:2 282:1 285:1 308:1 325:1 388:1 455:1 484:1 633:1 641:1 690:1 702:1 729:1 760:1 786:1 877:1 1085:1 1167:1 1184:1 1245:1 1365:1 1495:1 1580:1 1599:1 1661:1 1777:1 1823:1 1944:1 1988:1 2054:1 2199:2 2249:1 2435:1 2436:2 2437:1 2438:1 2439:2 2440:1 2441:1 2442:1 2443:1 2444:1 2445:1 2446:1 2447:1 2448:1 2449:1 2450:2 2451:2 2452:1 2453:1 2454:1 2455:1 2456:1 2457:1 2458:1 
-0.01121357571968085 0.01063286444337487 0.01191322082239733 0.01142288847269851 1:5 14:4 16:5 19:2 24:3 25:1 27:3 29:1 47:1 48:3 56:2 61:1 62:3 63:1 72:1 74:1 81:1 82:2 108:1 110:1 120:1 123:1 126:1 169:1 171:1 179:1 248:1 325:2 353:1 368:1 388:1 409:1 460:1 475:1 541:1 548:1 593:1 903:1 913:1 941:1 951:2 1048:1 1090:2 1309:1 1339:2 1508:1 1548:1 1896:1 1924:1 2094:1 2193:1 2522:1 2523:1 2524:1 2525:1 2526:2 2527:1 2528:1 2529:1 2530:1 2531:1 2532:1 2533:1 2534:1 2535:1 2536:4 2537:1 2538:1 2539:1 2540:1 2541:1 2542:1 2543:1 2544:1 2545:1 2546:1 2547:1 2548:1 
-0.006358869448016072 0.01333029787005098 0.00686496749978656 0.007885817075713312 1:2 2:1 14:3 16:3 17:1 27:5 29:2 33:1 38:1 48:2 49:2 56:1 59:1 61:2 62:3 63:1 64:1 81:1 82:1 87:1 88:2 90:1 123:1 125:1 126:1 138:1 180:1 218:1 221:2 276:2 279:1 308:1 398:1 419:1 600:1 725:1 797:1 967:1 1040:1 1058:1 1064:1 1065:1 1085:1 1346:1 1383:1 1435:1 1452:1 1469:3 1476:1 1696:1 1836:1 2350:2 2402:1 2623:1 2832:3 2833:3 2834:1 2835:1 2836:1 2837:1 2838:1 2839:1 2840:2 2841:1 2842:1 2843:1 2844:1 
-0.01341614980844628 0.01691990457339754 0.01744332224207511 0.008552565481239369 1:4 2:1 14:4 16:5 17:1 19:4 27:5 29:1 43:1 48:5 49:2 59:1 81:1 82:1 88:1 157:1 221:1 248:1 276:1 377:1 396:1 475:1 484:1 514:1 531:1 575:1 690:1 746:1 784:1 812:1 860:1 1008:1 1051:1 1529:1 2097:1 2352:1 2394:1 2427:1 2578:1 2741:1 2785:1 2794:1 2956:1 2957:2 2958:1 2959:1 2960:1 2961:1 2962:1 2963:1 2964:1 2965:1 2966:1 2967:1 2968:1 2969:1 2970:1 2971:1 2972:1 2973:1 2974:1 2975:1 2976:1 2977:1 
-0.009509733792872245 0.01134593734219281 0.009079061656702929 0.009058808725641493 1:3 14:3 15:2 16:3 19:1 22:1 27:3 29:1 38:1 44:1 48:4 49:3 61:1 62:1 63:1 81:1 82:1 88:1 110:1 125:1 137:1 138:1 157:1 161:1 179:1 221:1 245:1 260:1 263:1 285:3 318:1 325:2 368:1 412:1 471:1 509:1 600:1 614:1 632:1 660:1 746:1 962:2 963:1 1120:1 1244:1 1496:1 1689:1 1750:1 2027:3 2153:1 2751:1 3144:2 3145:1 3146:1 3147:1 3148:1 3149:3 3150:1 3151:1 3152:1 3153:2 3154:1 3155:1 3156:1 3157:1 3158:1 3159:1 3160:1 3161:1 3162:1 3163:1 3164:1 3165:1 3166:1 3167:1 
-0.005633268092227674 0.008287450686999393 0.00590889931563603 0.01080867551810846 1:3 11:2 14:2 16:3 19:1 27:7 29:1 43:2 46:1 48:5 49:2 50:1 58:1 62:3 63:1 69:1 81:1 82:1 112:1 123:1 126:1 137:1 161:2 179:1 180:1 221:1 248:2 263:1 285:1 334:1 354:1 363:1 368:1 388:2 419:1 484:1 500:1 548:1 557:1 633:1 662:1 796:1 797:1 877:1 951:1 969:1 1018:1 1108:1 1140:1 1180:1 1226:1 1311:1 1441:1 1450:1 1668:1 1740:1 1825:1 1939:1 2322:1 3014:1 3213:1 3299:4 3300:1 3301:1 3302:1 3303:1 3304:2 3305:2 3306:1 3307:1 3308:1 3309:1 3310:1 3311:1 3312:1 3313:1 3314:1 3315:1 3316:1 3317:1 3318:1 3319:1 3320:1 3321:1 3322:1 3323:1 3324:1 
-0.009844048851882607 0.006293746197538628 0.007397315293597407 0.01244068363799769 1:4 14:5 16:3 19:1 23:1 27:6 29:1 32:1 38:2 48:3 49:2 53:1 59:1 62:4 63:1 71:1 81:1 82:2 123:1 126:1 157:1 161:1 221:2 265:1 403:1 426:1 484:1 487:1 514:1 516:1 581:1 596:1 739:1 742:3 822:1 963:1 1085:1 1110:1 1481:1 1599:1 1766:1 2093:1 2213:1 2216:2 2383:1 2402:1 2830:1 2851:1 3304:1 3349:1 3429:1 3509:1 3510:1 3511:1 3512:4 3513:1 3514:1 3515:1 3516:1 3517:1 3518:1 3519:1 3520:1 3521:2 3522:1 3523:1 3524:1 3525:2 3526:1 3527:1 3528:1 3529:1 
-0.01325818098897416 0.01310471811649627 0.01356361505604024 0.02330474546651043 1:3 5:1 11:1 14:6 16:3 19:1 24:1 27:9 31:2 33:1 38:1 48:4 49:1 53:1 56:3 62:1 63:1 71:2 81:1 82:1 111:1 112:1 113:1 128:1 129:1 151:1 202:1 203:1 218:1 221:1 255:1 325:1 500:1 541:1 548:1 628:1 716:1 717:1 718:1 721:1 743:1 775:1 830:1 872:1 903:1 952:2 1025:1 1056:1 1060:1 1184:1 1249:1 1652:1 1696:1 1697:1 2151:1 2286:1 2380:1 2467:3 2586:1 2734:2 2753:1 3290:3 3741:1 4018:1 4019:1 4020:1 4021:1 4022:1 4023:3 4024:2 4025:1 4026:1 4027:1 4028:1 4029:1 4030:1 4031:1 4032:1 4033:1 4034:1 4035:1 4036:1 4037:1 4038:1 
-0.01592326047091148 0.01343087085236116 0.007108279167488795 0.01709561553853719 1:4 14:3 16:2 27:8 29:1 32:1 48:2 61:1 62:7 63:3 64:1 81:1 82:2 88:1 106:1 129:1 161:1 206:1 221:1 368:2 377:1 388:2 436:1 476:1 690:2 725:1 854:1 874:1 918:1 1168:1 1562:3 1569:1 1823:1 1888:1 2142:1 2217:1 2990:1 3151:1 3338:1 3624:1 4063:1 4114:2 4115:1 4116:1 4117:1 4118:1 4119:1 4120:1 4121:1 4122:1 4123:1 4124:1 4125:1 4126:1 4127:1 4128:1 4129:1 4130:1 4131:1 4132:1 
-0.01459339009532359 0.014860849342196 0.008977118523437555 0.008651903772624408 1:3 14:4 16:3 23:1 24:1 27:1 33:1 38:2 46:1 48:2 49:2 56:1 61:2 69:1 81:1 82:2 88:1 110:3 149:1 180:1 245:1 251:1 279:1 368:1 388:3 403:1 419:1 594:1 636:1 685:1 753:1 857:1 878:1 1028:1 1056:1 1220:1 1495:1 1816:1 1901:1 1952:1 2034:1 2610:1 2635:2 2833:4 3077:1 3397:1 3414:1 4141:1 4216:1 4217:1 4218:1 4219:1 4220:1 4221:1 4222:1 4223:1 4224:1 4225:1 4226:1 4227:1 4228:1 4229:1 4230:1 4231:1 4232:1 4233:1 
-0.02551714186856792 0.03063645802611513 0.01950063075970982 0.02157833844204943 1:4 14:2 16:2 19:2 22:1 24:1 27:1 29:2 32:1 38:3 47:1 48:5 49:4 56:2 65:1 81:1 82:1 88:2 110:1 129:1 158:1 161:1 221:1 253:1 259:1 325:1 340:1 475:1 512:1 788:1 896:1 1106:1 1320:1 1441:1 1908:1 2288:1 2457:1 2465:1 2751:1 2998:1 3400:1 3570:1 4234:1 4235:1 4236:1 4237:1 4238:1 4239:1 4240:1 4241:1 4242:1 4243:1 4244:1 4245:1 4246:1 4247:1 4248:1 4249:1 4250:1 
-0.00711280506673855 0.01233429540230574 0.01348742441573183 0.004149495078967554 1:3 11:1 14:3 16:3 19:2 27:2 34:1 38:2 47:1 48:2 49:1 56:1 61:1 62:2 63:1 64:2 81:1 82:2 110:1 158:1 191:1 203:1 221:1 275:1 276:1 277:1 368:1 370:1 396:1 479:1 557:1 569:1 628:1 633:1 777:1 788:1 879:1 1035:1 1049:1 1053:1 1261:1 1338:1 1343:1 1345:1 1512:1 1933:1 2671:1 3270:1 3453:1 3464:1 4119:1 4228:1 4251:3 4252:2 4253:1 4254:2 4255:1 4256:1 4257:1 4258:1 4259:1 4260:1 4261:1 4262:1 4263:1 4264:1 4265:1 4266:1 4267:1 
-0.004575730689240751 0.003849585081668746 0.004530145425769921 0.001338219009058636 1:4 11:13 14:6 16:7 19:3 27:21 29:1 38:1 40:1 43:2 47:1 48:9 52:1 61:2 62:2 63:2 65:1 71:1 72:1 81:1 82:2 88:2 110:1 117:1 127:1 131:2 137:1 149:1 157:2 161:1 165:1 166:3 178:2 179:1 202:3 206:1 221:3 248:1 305:1 308:1 325:1 343:1 368:3 388:2 392:1 419:3 425:1 442:2 460:1 468:1 476:1 499:1 500:5 512:1 571:1 593:3 594:1 597:1 812:1 830:1 877:3 885:1 970:1 979:1 1021:1 1031:2 1058:1 1085:1 1096:1 1097:3 1180:1 1226:1 1237:1 1247:1 1277:1 1302:1 1340:1 1466:1 1543:1 1597:1 1661:1 1689:1 1720:1 1737:1 1839:1 1974:1 2129:1 2143:1 2149:1 2350:1 2399:1 2404:1 2406:2 2427:3 2505:1 2704:2 2796:1 2816:1 2859:1 2996:1 3070:1 3084:1 3093:1 3123:1 3140:1 3237:1 3287:1 3328:1 3469:1 3710:1 3997:1 4268:2 4269:1 4270:3 4271:2 4272:6 4273:1 4274:1 4275:2 4276:2 4277:2 4278:1 4279:1 4280:1 4281:1 4282:1 4283:1 4284:1 4285:1 4286:1 4287:1 4288:1 4289:3 4290:3 4291:1 4292:1 4293:1 4294:1 4295:1 4296:1 4297:1 4298:1 4299:1 
-0.03977871554684151 0.05253994968673443 0.0407027516165532 0.04195040846510933 16:1 19:1 27:4 38:3 48:1 62:4 81:1 82:1 123:1 124:1 125:1 126:1 151:1 161:2 166:1 213:1 546:1 652:1 743:1 760:1 762:1 837:1 1031:1 1057:1 1485:1 1490:1 1682:1 1839:1 2427:1 2693:1 3142:1 3143:1 4423:1 4424:1 4425:1 4426:1 
-0 0.002455104321479972 0.003951805359966198 0.003075928927791813 1:7 9:1 11:1 14:13 16:5 19:6 22:1 24:3 27:22 29:3 38:4 43:1 46:1 48:3 49:1 61:5 62:3 63:3 71:1 81:1 82:5 88:2 90:1 137:1 149:2 161:1 162:1 165:1 170:1 171:1 180:1 191:1 218:1 221:3 233:2 237:1 247:1 255:1 279:1 303:2 325:1 341:1 343:1 368:1 372:1 377:1 388:1 422:2 424:2 425:1 441:1 468:2 504:1 557:1 568:1 574:1 600:1 616:1 690:1 725:1 726:1 742:1 858:1 975:1 1030:1 1031:1 1085:1 1343:2 1424:1 1477:1 1511:1 1543:1 1603:1 1708:2 1822:1 1846:1 1851:1 1885:1 1888:1 1986:3 2000:1 2068:1 2287:1 2322:2 2699:1 2776:2 2903:1 3215:1 3400:1 3427:1 4026:1 4124:1 4274:1 4511:3 4512:2 4513:1 4514:1 4515:3 4516:1 4517:2 4518:1 4519:1 4520:3 4521:1 4522:5 4523:1 4524:1 4525:1 4526:1 4527:1 4528:1 4529:2 4530:1 4531:1 4532:1 4533:1 4534:1 4535:2 4536:1 4537:1 4538:2 4539:1 4540:1 4541:1 4542:1 4543:1 4544:1 4545:2 4546:1 4547:1 4548:1 
-0.03025841280862207 0.02217710247298829 0.02170443246407356 0.02071446865939073 1:3 19:1 27:1 29:6 38:8 43:1 48:2 49:2 53:1 56:1 71:1 81:1 82:3 128:1 129:1 161:1 191:1 203:1 239:1 276:1 325:1 368:1 370:1 480:1 517:1 553:1 600:1 615:1 690:1 728:1 984:1 1075:1 1476:1 1575:1 1716:1 1717:1 1896:1 2139:1 3093:1 3181:1 3486:1 3518:1 3755:1 3798:1 4532:1 4565:1 4566:1 4567:1 4568:1 4569:1 4570:1 4571:1 
-0.003493314066272384 0 0 0.01162899606385293 1:5 8:1 14:5 16:4 17:1 27:8 33:1 38:3 48:4 49:1 52:2 56:1 62:15 63:3 65:1 71:3 81:1 82:2 125:1 178:1 202:2 213:1 221:2 235:4 249:1 253:1 303:1 370:1 391:1 409:1 412:1 431:1 436:1 468:1 475:1 476:1 482:1 574:1 612:2 874:1 918:1 968:1 979:1 987:1 990:1 991:1 992:1 1098:1 1157:1 1164:1 1178:1 1282:1 1308:1 1339:1 1439:1 1683:1 1772:1 1774:1 2595:1 2617:1 3013:1 3041:1 3553:1 3621:1 3692:3 3729:1 4375:1 4639:2 4640:1 4641:1 4642:1 4643:1 4644:1 4645:1 4646:1 4647:1 4648:1 4649:1 4650:1 4651:1 4652:1 4653:3 4654:1 4655:1 4656:1 4657:1 4658:1 4659:2 4660:1 4661:1 4662:1 4663:1 
-0.006264228264692393 0.01866104552510832 0.0182324049910726 0.006980090574187296 1:1 2:1 11:3 14:1 16:4 19:3 27:6 38:1 39:1 40:1 43:1 44:1 48:4 61:1 62:3 63:1 65:1 81:1 82:1 88:1 90:1 96:1 108:1 123:1 126:1 137:1 179:1 213:1 258:1 277:1 282:1 285:1 305:1 368:1 388:3 419:1 449:2 468:1 475:1 493:1 510:1 546:1 583:1 593:1 631:1 633:1 636:1 684:1 685:1 713:1 772:1 877:1 937:2 1085:1 1092:1 1136:1 1426:1 1468:1 1997:1 2195:1 2398:2 2516:1 2671:1 3429:1 3898:1 4716:1 4717:1 4718:1 4719:1 4720:1 4721:1 4722:1 4723:1 4724:2 4725:1 4726:1 4727:1 
-0.005457409026374364 0.003968159184805006 0 0.001361603391443369 1:7 11:3 14:5 16:7 19:5 21:2 27:12 29:3 38:6 42:1 43:1 45:1 48:7 49:5 52:1 56:3 57:1 58:1 61:1 62:6 63:3 65:1 71:2 81:1 82:3 88:1 90:1 101:2 108:3 128:1 137:1 158:1 161:1 166:1 169:1 172:1 179:1 191:1 202:2 213:1 221:1 233:1 242:1 248:2 257:2 271:1 279:1 303:1 308:1 353:2 354:1 368:1 377:1 388:2 396:1 409:1 418:1 419:1 427:1 442:1 468:1 487:1 500:1 512:1 514:1 531:2 542:1 548:1 575:1 596:1 622:1 628:1 643:1 653:2 690:1 714:1 726:1 729:1 854:1 882:1 895:1 896:1 932:1 962:1 987:1 1069:1 1079:1 1175:1 1200:1 1309:1 1311:1 1316:1 1462:1 1529:1 1543:1 1720:1 1816:2 1861:1 1901:1 1967:1 2000:1 2033:1 2126:1 2130:1 2131:1 2134:1 2233:1 2239:1 2247:1 2349:2 2538:1 2553:1 2617:1 2621:2 2642:1 2708:5 2741:1 2859:1 2890:1 2969:1 3000:1 3153:1 3279:2 3491:1 3512:1 3553:1 3798:1 3980:1 4180:1 4228:1 4375:1 4706:1 4783:2 4784:1 4785:1 4786:1 4787:1 4788:1 4789:2 4790:1 4791:1 4792:1 4793:1 4794:1 4795:1 4796:1 4797:1 4798:1 4799:1 4800:1 4801:1 4802:3 4803:1 4804:1 4805:1 4806:1 4807:1 4808:1 4809:1 4810:1 4811:1 4812:1 4813:1 4814:1 4815:1 4816:1 4817:1 4818:1 4819:1 4820:1 4821:1 4822:1 
-0.036330788825333 0.05499862569839875 0.02426862796686346 0.05116434909305724 1:6 14:1 16:1 27:3 48:2 49:1 62:4 81:1 82:1 116:1 123:1 125:1 126:1 179:1 213:1 221:1 325:1 330:1 383:1 394:1 396:1 425:1 574:1 594:1 604:1 605:1 606:1 607:1 1056:1 1075:1 2294:1 2413:1 2776:1 3029:1 3186:1 4889:1 4890:1 4891:1 4892:1 4893:1 4894:1 4895:1 4896:1 4897:1 4898:1 
-0.008551403027454477 0.01036666405596906 0.01023870060659208 0.01317368272131271 1:3 2:1 14:2 16:3 17:1 19:1 27:9 29:1 33:1 38:1 42:1 44:1 45:1 46:1 48:4 49:1 56:1 59:1 62:2 69:1 71:1 76:1 81:1 82:4 88:1 108:1 123:1 125:1 126:1 195:1 213:1 253:1 271:1 377:2 388:1 396:1 419:1 454:1 628:1 660:1 1969:1 2427:1 2433:1 2448:1 2538:1 3020:1 3021:1 3022:1 3148:1 3289:1 3557:2 3621:2 3755:1 4060:1 4536:1 4589:1 4966:1 4984:1 4985:1 4986:1 4987:4 4988:1 4989:1 4990:2 4991:2 4992:2 4993:1 4994:1 4995:2 
-0.02765276873579336 0.03674711597347233 0.03265207037309274 0.03158661563620274 1:1 16:1 19:1 27:3 29:1 48:2 49:1 62:2 76:1 81:1 82:1 123:1 125:1 126:1 191:2 202:1 221:2 368:1 385:1 479:1 557:1 633:1 790:1 825:1 1053:1 1529:1 1650:1 2651:1 2813:1 3881:1 3909:1 4996:1 4997:1 4998:2 4999:1 5000:1 5001:1 5002:1 5003:1 5004:1 5005:1 5006:1 5007:1 5008:1 5009:1 5010:1 5011:1 
-0.008845210202008626 0.01445850192812048 0.01262076186549622 0.002792223419943513 1:4 14:2 16:4 19:4 27:5 31:1 33:1 38:4 48:4 49:3 52:1 61:1 62:1 63:1 64:1 75:1 81:1 82:1 88:1 97:1 129:1 137:1 172:1 179:1 218:1 221:2 281:1 295:1 377:1 476:1 502:1 510:1 541:3 550:1 557:1 574:1 690:1 702:1 755:1 816:1 894:1 896:1 899:1 1040:1 1124:1 1202:2 1311:1 1697:1 2542:1 2721:1 3175:1 3213:1 3345:1 3467:1 3924:1 4052:1 4589:1 4971:1 5012:1 5013:1 5014:1 5015:1 5016:2 5017:1 5018:1 5019:1 5020:1 5021:1 5022:1 5023:1 5024:1 5025:1 5026:1 5027:1 5028:1 5029:1 5030:1 
-0.01184608725874165 0.009394099793106845 0.006033938996733642 0.01345599317999213 1:7 9:1 14:1 19:2 27:1 29:2 33:1 38:2 43:1 48:3 49:2 50:1 59:1 61:1 62:3 63:1 71:1 81:1 82:1 87:1 108:1 123:1 125:1 126:1 164:1 179:1 180:1 221:3 255:1 335:1 376:1 378:1 388:1 471:1 832:2 952:1 1053:1 1056:1 1282:1 1462:3 1495:1 1857:1 1885:1 2349:1 3309:1 5274:2 5275:1 5276:1 5277:1 5278:2 5279:1 5280:1 5281:1 5282:1 5283:1 5284:1 5285:1 5286:1 5287:1 5288:1 5289:1 
-0.02445699593029619 0.02731425177506039 0.02439556926506205 0.02943891305410705 1:2 2:1 14:3 16:2 19:1 27:3 48:3 62:3 63:2 71:1 81:1 82:1 127:1 224:1 245:1 368:1 398:1 419:1 575:1 693:1 933:1 1294:1 1740:1 1781:1 1823:1 2106:1 2181:1 2321:1 2427:1 2441:1 2516:1 2566:1 2849:1 3040:1 3050:1 3069:1 3197:1 3478:1 4072:1 4253:1 5230:1 5541:1 5542:1 5543:1 5544:1 5545:1 5546:1 5547:1 5548:1 5549:1 5550:1 5551:1 5552:1 
-0.004645236201543002 0.005403750123562178 0.00375249769115805 0.0008731576456555022 1:5 11:1 14:8 15:1 16:6 19:2 24:2 27:11 29:4 31:1 38:3 40:1 42:4 43:3 46:1 47:6 48:9 49:13 56:1 57:1 58:1 61:6 62:1 63:1 67:1 72:1 73:1 81:1 82:1 88:3 120:1 129:1 138:1 161:4 178:1 180:1 221:3 233:1 248:3 253:1 257:3 266:1 279:1 281:1 305:1 308:2 343:1 368:2 385:1 386:1 388:1 418:1 422:1 441:1 468:1 480:1 496:1 500:1 517:1 562:1 574:1 594:1 600:3 615:1 633:1 669:1 690:1 702:1 703:1 728:1 797:1 822:1 832:1 858:1 952:1 1056:1 1058:1 1075:1 1085:1 1097:1 1115:1 1285:1 1316:1 1428:1 1449:1 1543:2 1551:1 1601:2 1719:2 1730:1 1740:1 1800:1 1888:1 1934:1 1995:2 2145:2 2350:2 2430:1 2500:1 2606:1 2608:1 2706:1 2740:1 2890:1 3164:1 3382:1 3405:1 3692:1 3735:2 3832:1 4033:1 4144:1 5071:1 5081:1 5171:1 5213:1 5259:1 5472:1 5574:1 5575:1 5576:1 5577:1 5578:1 5579:2 5580:1 5581:1 5582:2 5583:1 5584:1 5585:1 5586:1 5587:1 5588:2 5589:2 5590:1 5591:1 5592:1 5593:1 5594:1 5595:1 5596:3 5597:1 5598:1 5599:1 5600:1 5601:1 5602:1 5603:1 5604:1 5605:1 5606:1 
-0.0008037730869122617 0.001078457160293032 0.001948281502539021 0 1:8 12:3 14:11 16:10 19:6 20:3 27:19 29:4 38:10 43:3 46:1 47:1 48:10 49:1 56:1 62:3 63:3 64:1 71:1 72:2 81:1 82:3 88:5 90:2 99:1 110:1 116:2 118:1 125:1 136:1 137:2 147:1 161:1 170:3 171:1 179:1 191:2 195:2 196:1 213:2 218:1 241:1 251:4 255:1 266:1 271:1 325:3 334:1 368:3 369:2 370:1 377:2 388:4 391:1 394:1 396:1 419:1 476:1 484:2 487:1 492:1 500:2 502:1 557:1 574:1 593:1 672:1 685:1 701:1 702:1 721:1 792:1 846:1 860:1 874:1 950:1 954:1 968:1 975:1 1049:1 1053:3 1085:1 1135:1 1184:1 1239:1 1282:1 1303:1 1304:1 1316:1 1389:1 1412:3 1417:1 1428:1 1489:1 1508:1 1588:1 1601:1 1616:1 1622:8 1683:1 1823:1 1851:1 1888:1 1889:1 2044:1 2068:1 2199:1 2215:3 2339:1 2445:1 2456:5 2517:1 2584:1 2688:1 2712:1 2726:1 2797:1 2813:2 2851:1 3050:1 3132:1 3153:2 3312:1 3622:1 3712:1 3732:1 3760:3 3785:1 3835:1 3860:1 4141:1 4144:1 4209:1 4241:1 4414:1 4424:1 4574:2 4689:1 4850:1 5185:2 5641:8 5642:1 5643:1 5644:1 5645:1 5646:1 5647:1 5648:1 5649:1 5650:2 5651:1 5652:1 5653:1 5654:2 5655:1 5656:2 5657:1 5658:1 5659:1 5660:1 5661:1 5662:1 5663:1 5664:1 5665:1 5666:1 5667:2 5668:1 5669:1 5670:1 5671:1 5672:1 5673:1 5674:1 5675:3 5676:1 5677:1 5678:1 5679:1 5680:1 5681:1 5682:1 5683:1 5684:1 5685:1 5686:2 5687:1 5688:1 5689:1 5690:1 5691:1 5692:1 5693:1 5694:1 5695:1 5696:1 5697:1 5698:1 5699:1 5700:1 
-0.01018808036820258 0.01272806909596863 0.01037493710037481 0.008920709574823145 1:5 2:1 14:1 16:6 24:1 27:5 31:1 38:2 44:1 45:1 48:2 49:1 52:1 53:1 61:3 62:3 63:1 74:1 81:1 82:2 100:2 123:1 125:1 126:1 149:1 151:2 166:1 179:1 251:1 317:1 325:1 368:1 372:1 418:1 419:1 479:1 484:1 499:3 601:1 636:1 751:1 761:1 777:1 790:1 915:1 942:1 948:1 1059:1 1212:1 1262:1 1599:1 1696:1 1817:2 2240:1 2568:2 2672:1 2849:1 3193:1 4184:1 4187:1 4365:1 4800:1 4943:1 5701:2 5702:3 5703:1 5704:1 5705:1 5706:1 5707:1 5708:1 5709:3 5710:1 5711:1 5712:1 5713:1 5714:1 5715:1 5716:1 5717:1 
-0.01321844507153662 0.01265056217661574 0.007733313110726688 0.008077401305195494 1:1 14:1 16:5 19:3 27:5 29:1 33:3 38:1 42:1 43:1 48:3 49:3 62:4 63:1 76:2 81:1 82:3 88:1 101:1 110:1 161:2 179:1 191:1 213:1 253:2 334:2 368:1 418:1 574:1 595:1 685:1 797:1 816:1 918:1 1029:1 1305:1 1506:1 1569:1 1655:1 1726:1 1737:1 1768:1 1808:1 2149:1 2291:1 2435:1 2693:1 2712:1 2742:1 2841:3 2990:1 3193:1 3349:1 3382:1 3582:1 3598:1 5267:1 5757:1 5758:1 5759:1 5760:1 5761:2 5762:1 5763:1 5764:1 5765:1 5766:1 5767:1 5768:1 5769:1 5770:1 
-0.007036680927313881 0.01648288245801897 0.0142906394679036 0.01448165101265227 1:3 6:1 9:1 14:3 16:2 19:3 27:7 38:1 48:1 49:1 62:1 63:1 76:1 81:1 82:2 90:2 105:1 125:1 166:1 189:1 191:1 196:2 216:1 248:1 267:1 368:1 377:1 391:1 419:1 531:1 616:1 633:1 683:1 742:1 1212:1 1243:1 1317:1 1438:2 1459:1 1793:1 1794:1 1795:1 1822:1 1967:1 1971:1 2379:1 2776:1 2849:1 3034:1 3182:1 3331:1 3983:1 4028:1 4402:1 4558:2 4807:1 4996:1 5885:1 5886:1 5887:1 5888:2 5889:2 5890:1 5891:1 5892:1 5893:1 5894:1 5895:1 
-0.01273445324198311 0.02241243845330983 0.01714499776033101 0.01342238235314755 1:4 14:1 16:3 19:2 22:1 24:3 27:6 29:1 32:1 38:2 47:1 48:1 49:5 56:1 61:2 62:1 63:1 65:1 81:1 82:1 88:2 129:1 137:1 179:1 218:1 233:2 255:1 275:1 279:1 325:3 353:1 354:1 361:1 368:1 418:1 548:1 593:1 633:1 690:1 796:1 797:1 832:1 846:1 857:1 948:1 1014:1 1019:1 1240:1 1293:1 1330:1 1720:1 1736:1 1881:1 1978:1 2049:1 2193:1 2413:1 2733:1 2995:1 3192:1 4195:1 4619:1 5912:3 5913:1 5914:1 5915:1 5916:1 5917:1 5918:1 5919:1 5920:1 5921:1 5922:1 5923:1 5924:1 5925:2 5926:1 5927:1 5928:1 5929:1 5930:1 5931:1 5932:1 5933:1 
-0.01013656683968736 0.007620829862198448 0.01415429103614792 0.009928223448969447 11:1 14:3 16:3 19:1 20:1 27:6 31:2 38:2 48:1 61:1 62:8 63:2 69:1 81:1 82:2 97:1 118:1 134:1 157:1 169:1 191:1 193:1 248:1 340:1 388:1 413:1 448:1 479:1 500:1 517:1 524:1 542:1 628:1 677:1 682:1 699:1 877:1 957:1 968:1 969:1 1023:1 1248:1 1268:1 1438:1 1476:1 1478:1 1662:1 1705:1 1720:1 1877:1 1944:1 2027:1 2100:1 2507:1 2553:1 2563:1 2935:1 2976:1 2977:1 3005:1 3079:1 3363:1 3649:1 3900:1 4729:1 6009:1 6010:1 6011:2 6012:1 6013:1 6014:2 6015:1 6016:1 6017:1 6018:1 6019:1 6020:1 6021:1 6022:1 6023:1 6024:1 6025:2 6026:1 6027:1 6028:1 6029:1 6030:1 6031:1 6032:1 6033:1 6034:1 6035:1 6036:1 6037:1 6038:1 6039:1 6040:1 6041:1 6042:1 6043:1 6044:1 6045:1 
-0.01529350381681445 0.01637789271955426 0.009707303241401621 0.01619985552939705 1:3 8:1 11:1 14:2 16:1 27:7 38:1 48:2 49:1 53:1 61:1 62:4 63:2 71:1 74:1 81:1 82:2 88:1 132:1 157:1 161:2 179:1 182:1 196:1 206:1 248:1 263:1 272:1 325:1 376:1 377:1 388:1 487:1 660:1 979:1 1003:1 1821:1 1886:1 1951:1 2154:1 2174:1 2404:1 2809:1 3271:1 3647:1 4044:1 4463:1 4677:1 5958:1 6091:1 6103:1 6104:1 6105:4 6106:1 6107:1 6108:2 6109:1 6110:1 6111:1 6112:1 6113:1 6114:1 6115:1 6116:1 6117:1 6118:1 
-0.005841921024579271 0.00508590709791808 0.00183545587902227 0.001698208099807907 1:6 14:6 16:7 19:10 24:3 27:8 29:10 33:1 38:4 43:1 47:2 48:6 49:16 57:1 58:1 61:1 63:1 69:1 71:1 72:3 81:1 82:1 87:1 88:1 97:2 108:1 110:2 123:1 137:1 151:1 153:1 154:2 165:1 191:1 209:1 221:1 233:1 236:1 248:1 255:1 275:1 325:2 343:2 370:2 388:2 394:1 409:1 419:1 424:1 441:1 468:1 477:1 500:2 510:1 590:1 594:1 616:2 619:1 633:1 690:2 693:2 702:1 742:1 760:1 957:2 1023:1 1031:2 1057:1 1085:1 1097:1 1120:1 1170:1 1239:1 1258:1 1417:1 1437:1 1470:1 1486:1 1527:2 1588:1 1661:1 1740:1 1888:1 1901:1 1939:2 1952:1 2097:2 2145:1 2193:1 2379:1 2477:1 2609:1 2614:1 2615:1 2667:1 2745:1 2859:2 2886:1 3269:1 3271:1 3400:1 3565:1 3673:1 3705:2 3724:1 3729:1 3809:2 3876:1 3971:1 4165:1 4449:1 4501:2 4557:1 4559:2 5039:1 5060:1 5115:1 5391:1 5683:2 5917:1 6017:1 6055:1 6119:1 6120:1 6121:1 6122:1 6123:1 6124:1 6125:1 6126:1 6127:1 6128:1 6129:1 6130:1 6131:1 6132:1 6133:1 6134:1 6135:1 6136:1 6137:1 6138:1 6139:1 6140:2 6141:1 6142:1 6143:1 6144:1 6145:1 6146:1 6147:1 6148:1 6149:1 6150:1 6151:1 6152:1 6153:1 6154:1 
-0.01361181414031051 -0.02181006931324585 0.01563854405910987 0.01472045771578699 1:3 12:1 14:2 16:4 19:1 24:2 27:8 38:1 48:6 61:1 69:1 81:1 82:1 88:1 90:1 157:1 179:1 221:1 273:4 274:1 275:1 276:2 277:1 278:1 279:1 280:1 281:1 282:1 283:1 284:1 285:1 286:1 287:1 288:1 289:1 290:1 291:1 292:1 293:1 294:1 295:1 296:1 297:1 298:1 299:2 300:1 301:1 302:1 303:1 304:1 305:2 306:2 307:1 308:1 309:1 310:1 311:1 312:1 313:1 
-0.01630275909743979 -0.03362315123190785 0.01754639553788755 0.02399844350805799 1:3 14:1 17:1 38:1 48:1 56:1 62:3 63:1 65:1 81:1 82:2 88:1 123:1 125:1 126:1 179:1 191:1 206:1 383:1 388:1 474:1 495:1 500:1 567:1 582:1 583:1 584:1 585:1 586:1 587:1 588:2 589:1 590:1 591:1 592:1 593:1 594:1 595:1 596:1 597:1 598:1 599:1 600:1 601:1 602:1 603:1 604:1 605:1 606:1 607:1 
-0.008514165292811267 -0.005538578845100808 0.003641841918696648 0.007589826992555427 1:3 11:1 12:1 14:1 16:5 19:1 24:1 27:5 29:1 33:1 38:1 40:1 46:1 47:1 48:5 49:4 56:3 65:1 69:1 81:1 82:1 88:3 90:1 100:1 110:1 172:1 180:1 195:1 221:1 245:1 325:1 385:1 419:1 532:1 548:1 552:1 575:1 608:1 609:1 610:3 611:2 612:1 613:1 614:1 615:1 616:1 617:1 618:1 619:1 620:1 621:1 622:1 623:1 624:1 625:1 626:1 627:1 628:1 629:1 630:1 631:2 632:1 633:1 634:1 635:1 636:1 637:1 638:1 639:1 640:1 641:1 642:1 643:1 644:1 645:1 646:1 647:1 648:1 649:1 650:1 651:1 652:1 653:1 654:1 655:1 656:1 657:1 658:1 659:1 660:1 
-0.008285458360020077 -0.006201816754790118 0.007843398197271454 0.008290350613227268 1:4 2:1 9:1 14:5 16:8 19:7 23:1 24:4 27:13 28:1 29:8 33:1 38:2 43:3 46:1 47:2 48:7 49:6 62:3 63:3 71:1 81:1 82:2 87:1 132:7 149:2 151:1 162:1 175:1 178:1 202:1 213:2 215:1 218:1 221:2 233:3 251:3 255:1 271:2 279:1 288:1 325:5 368:3 371:1 374:1 388:1 392:1 409:1 419:1 422:1 442:1 468:2 503:1 512:1 514:1 594:2 600:1 690:2 720:2 749:2 791:1 855:1 858:2 874:1 896:1 933:2 934:1 969:1 1013:1 1014:1 1015:2 1016:1 1017:1 1018:1 1019:1 1020:1 1021:1 1022:1 1023:1 1024:1 1025:1 1026:4 1027:1 1028:3 1029:1 1030:1 1031:1 1032:1 1033:1 1034:1 1035:2 1036:1 1037:1 1038:1 1039:1 1040:1 1041:1 1042:1 1043:1 1044:2 1045:1 1046:1 1047:1 1048:1 1049:2 1050:1 1051:1 1052:1 1053:1 1054:1 1055:1 1056:1 1057:1 1058:1 1059:1 1060:2 1061:1 1062:1 1063:1 1064:1 1065:1 1066:1 1067:1 1068:1 1069:1 1070:1 1071:1 1072:1 1073:1 1074:1 1075:1 1076:1 1077:1 1078:1 1079:1 1080:1 1081:1 1082:1 1083:1 1084:1 1085:1 1086:1 1087:1 1088:1 1089:1 
-0.0158231129676529 -0.001198020199560017 0.009233740042704748 0.005851767112526755 1:2 14:1 16:7 17:1 19:1 22:1 27:10 31:4 38:3 39:1 43:1 53:1 62:4 71:4 81:1 82:1 97:3 110:1 128:1 137:3 149:1 161:3 166:1 218:1 221:2 251:1 266:1 282:1 325:1 334:1 359:1 374:1 388:1 392:1 413:1 476:1 494:1 512:1 574:1 686:1 736:1 968:1 1035:2 1070:1 1147:1 1148:1 1149:3 1150:1 1151:1 1152:1 1153:1 1154:1 1155:1 1156:1 1157:1 1158:1 1159:1 1160:1 1161:1 1162:1 1163:2 1164:2 1165:2 1166:1 1167:2 1168:1 1169:1 1170:1 1171:1 1172:1 1173:1 1174:1 1175:2 1176:1 1177:1 1178:1 1179:1 1180:2 1181:1 1182:2 1183:1 1184:1 1185:1 1186:1 
-0.03267096139000091 -0.0299169557450162 0.02337497435465742 0.02984866892720197 1:1 19:1 24:1 38:1 47:1 48:2 49:1 56:1 62:2 81:1 82:1 88:1 123:1 125:1 126:1 221:1 225:1 248:1 748:1 1057:1 1187:1 1188:1 1189:1 1190:1 1191:1 1192:1 1193:1 1194:1 1195:1 1196:1 1197:1 1198:1 1199:1 1200:1 1201:1 1202:1 1203:1 1204:1 1205:1 1206:1 1207:1 1208:1 1209:1 1210:1 1211:1 1212:1 
-0.01077704983035478 -0.01362082756542715 0.00991776407559151 0.01506712014254597 1:6 11:1 14:5 16:3 19:3 24:1 27:8 38:2 48:7 49:1 53:1 56:1 61:1 62:5 63:2 81:1 82:1 120:1 123:1 126:1 157:1 161:3 179:1 191:2 202:1 206:1 213:1 221:1 255:1 263:1 305:1 308:1 318:1 377:1 388:1 419:2 436:1 442:1 548:1 575:1 581:1 707:1 753:1 772:2 913:1 935:1 1018:2 1075:1 1171:1 1255:1 1370:1 1372:1 1373:1 1374:1 1375:1 1376:1 1377:2 1378:2 1379:1 1380:1 1381:1 1382:1 1383:1 1384:3 1385:1 1386:3 1387:1 1388:1 1389:1 1390:1 1391:1 1392:1 1393:1 1394:1 1395:1 1396:1 1397:1 1398:1 1399:1 1400:1 1401:1 1402:1 1403:1 1404:1 1405:1 1406:1 1407:1 1408:1 1409:1 1410:1 1411:1 1412:1 1413:1 1414:2 1415:1 1416:1 
-0.01219483788984289 -0.02384085712473479 0.01384210000619701 0.02172977924923138 1:5 2:2 8:1 14:2 16:2 19:3 27:7 33:1 38:2 43:1 48:1 49:2 59:1 81:1 82:2 87:1 149:1 151:1 196:1 221:2 237:1 251:2 252:1 317:2 368:2 419:1 423:1 736:1 921:1 984:1 986:1 1023:1 1461:1 1632:2 1741:2 1742:1 1743:1 1744:1 1745:1 1746:1 1747:1 1748:1 1749:1 1750:1 1751:1 1752:1 1753:1 1754:1 1755:1 1756:1 1757:1 
-0.01026514404105516 -0.01058739569138283 0.004454245724015992 0.009267866364459013 1:4 8:1 9:1 14:5 16:3 19:2 27:8 31:1 33:1 38:1 44:1 48:6 49:2 57:1 58:1 61:2 62:6 63:4 76:1 81:1 82:1 110:1 125:1 161:3 179:1 213:1 215:1 221:3 245:1 254:1 255:1 266:1 303:1 325:1 334:1 335:1 362:1 363:1 377:2 396:1 403:1 409:1 474:4 478:3 489:1 512:1 548:1 553:1 628:1 648:1 650:1 757:1 763:1 816:2 948:1 975:1 1005:1 1025:1 1035:1 1059:1 1075:2 1171:1 1200:1 1212:1 1231:1 1339:1 1355:1 1417:1 1438:1 1482:1 1560:1 1636:1 1731:1 1758:1 1759:1 1760:1 1761:2 1762:1 1763:1 1764:1 1765:1 1766:1 1767:1 1768:1 1769:5 1770:1 1771:1 1772:3 1773:1 1774:1 1775:1 1776:1 1777:1 1778:1 1779:3 1780:1 1781:1 1782:1 1783:1 1784:1 1785:1 1786:1 1787:1 1788:1 1789:1 1790:1 1791:1 1792:1 1793:1 1794:1 1795:1 
-0.01176376248027382 -0.01123862376871439 0.01092410832158448 0.008423443727036715 1:5 2:1 8:1 14:3 16:4 19:1 27:2 29:1 31:5 33:1 35:1 38:3 43:1 48:5 49:1 52:1 56:1 61:2 62:1 63:1 65:1 71:1 81:1 82:3 88:2 97:3 108:1 110:1 118:1 167:1 172:1 213:2 221:1 248:2 267:1 288:1 325:1 368:1 376:1 388:2 409:2 424:1 425:1 475:1 575:1 641:3 713:1 758:1 877:1 948:1 959:1 1060:1 1197:1 1740:1 1839:1 1856:5 1857:1 1858:1 1859:1 1860:1 1861:1 1862:1 1863:1 1864:1 1865:1 1866:1 1867:1 1868:1 1869:1 1870:2 1871:1 1872:1 1873:1 1874:1 1875:1 1876:1 1877:1 1878:1 1879:3 1880:1 1881:1 1882:1 1883:1 1884:1 1885:1 1886:1 1887:1 1888:1 1889:1 1890:1 1891:1 1892:1 1893:1 1894:1 1895:1 1896:1 1897:1 
-0.005928107834929027 -0.00893733534136087 0.008656848264375632 0.00803860385921441 1:5 14:3 16:5 19:4 24:1 27:13 32:1 38:2 47:1 48:4 49:1 56:1 61:1 62:3 63:2 71:1 81:1 82:4 88:3 110:2 127:1 128:1 159:1 161:1 170:1 203:1 221:2 233:1 245:1 260:2 263:1 322:1 325:2 365:1 368:1 371:2 396:2 407:1 445:1 468:1 476:1 484:1 500:1 502:1 512:1 553:1 590:1 600:1 614:1 650:1 690:1 743:2 816:1 860:1 882:1 885:1 896:1 957:1 991:1 1002:1 1015:1 1044:5 1081:1 1089:1 1237:1 1316:1 1424:1 1645:1 1670:1 1720:1 1860:1 1909:1 1924:1 1925:1 1926:1 1927:1 1928:2 1929:1 1930:1 1931:1 1932:1 1933:1 1934:1 1935:1 1936:1 1937:4 1938:1 1939:1 1940:1 1941:1 1942:1 1943:1 1944:1 1945:1 1946:1 1947:1 1948:1 1949:1 1950:2 1951:1 1952:1 1953:1 1954:1 1955:1 1956:1 1957:1 1958:1 1959:1 1960:1 1961:1 1962:1 1963:1 
-0.008661486083928902 -0.006417766084527392 0.004179399001449416 0.007987189741225758 1:5 14:1 16:4 19:2 24:1 27:4 29:5 38:1 48:3 49:6 56:2 61:1 63:1 64:1 81:1 82:3 88:2 149:1 161:2 191:1 196:1 221:5 236:1 248:1 266:1 275:1 325:1 334:1 376:1 425:1 432:2 468:1 531:1 554:1 557:1 574:1 633:2 663:1 690:2 822:1 832:1 860:1 954:1 1073:1 1180:1 1599:1 1708:2 1728:2 1812:1 2033:1 2034:1 2035:1 2036:1 2037:1 2038:1 2039:2 2040:1 2041:1 2042:2 2043:1 2044:1 2045:1 2046:1 2047:1 2048:1 2049:1 2050:1 2051:1 2052:1 2053:1 2054:1 2055:1 2056:1 2057:1 2058:1 2059:1 2060:1 2061:1 2062:1 2063:1 2064:1 2065:1 2066:1 
-0.01228327690037686 -0.01829867579759958 0.01486003187312383 0.00698364338234847 1:2 14:1 16:3 19:3 27:2 29:1 38:1 45:1 48:1 49:2 62:4 65:1 81:1 82:2 123:1 125:1 126:1 149:1 197:1 288:1 308:1 334:3 383:1 479:1 575:1 631:1 633:2 659:1 796:1 1019:1 1031:1 1212:1 1226:1 1305:1 1346:1 1355:1 1902:1 2115:2 2116:1 2117:1 2118:1 2119:1 2120:1 2121:1 2122:1 2123:1 2124:1 2125:1 2126:1 2127:1 2128:1 2129:1 2130:1 2131:1 2132:1 2133:1 
-0.02489832084406614 -0.01944430194380422 0.01765728516444678 0.02015635848729143 1:4 11:1 14:2 16:1 19:1 27:1 30:1 31:2 33:1 44:1 45:1 49:1 56:1 62:4 63:1 81:1 82:1 88:1 110:1 123:1 126:1 151:1 191:1 213:1 257:1 383:1 388:1 435:1 494:1 500:1 530:1 1097:1 1169:1 1255:1 1320:1 1902:1 2013:1 2167:1 2168:1 2169:1 2170:1 2171:1 2172:1 2173:1 2174:1 2175:1 2176:1 2177:1 2178:1 2179:1 2180:1 2181:1 2182:1 2183:1 2184:1 2185:1 2186:1 2187:1 2188:1 2189:1 2190:1 
-0.006832525873765622 -0.006537746345990719 0.00860083800696531 0.004010460639551341 14:3 16:6 19:4 27:11 29:3 38:1 46:1 47:1 48:3 49:3 56:1 61:1 71:1 81:1 82:1 88:1 125:1 161:4 191:2 202:1 218:1 221:1 245:1 255:1 279:1 305:1 367:1 368:1 378:1 477:1 481:1 499:1 514:1 595:1 621:1 622:1 648:1 702:1 725:1 737:1 743:1 770:1 772:1 804:1 896:1 968:2 1093:1 1120:1 1146:1 1220:1 1278:1 1381:1 1430:1 1439:1 1504:1 1599:1 1672:1 1706:1 1876:1 1892:1 1994:1 2057:1 2148:1 2230:1 2231:1 2232:3 2233:1 2234:1 2235:1 2236:1 2237:1 2238:1 2239:1 2240:1 2241:1 2242:2 2243:1 2244:1 2245:1 2246:1 2247:1 2248:1 2249:1 2250:1 2251:1 2252:1 2253:1 2254:1 2255:1 2256:1 2257:1 2258:1 2259:1 2260:1 2261:1 2262:1 2263:1 2264:1 2265:1 2266:1 2267:1 2268:1 2269:1 2270:1 2271:1 
-0.0152764254391252 -0.01070033549900461 0.01182035250843029 0.01641010853674147 1:2 16:4 19:1 24:1 27:5 38:1 48:3 62:5 63:1 71:1 81:1 82:2 88:1 97:2 101:2 110:1 112:1 123:1 126:1 161:1 169:1 191:1 202:1 213:3 233:1 248:1 251:1 325:3 383:1 386:1 388:2 391:1 392:1 413:1 418:1 419:1 477:1 690:1 1031:2 1035:1 1117:1 1120:1 1121:1 1188:1 1297:1 1304:1 1474:1 1683:1 1768:1 1777:1 1915:1 1945:1 1981:1 2000:1 2259:2 2272:1 2273:1 2274:1 2275:1 2276:1 2277:1 2278:1 2279:1 2280:1 2281:1 2282:1 2283:1 2284:1 2285:1 2286:1 2287:1 2288:1 2289:1 2290:1 2291:1 2292:1 2293:2 2294:2 2295:1 2296:1 2297:1 2298:1 2299:1 2300:1 2301:2 2302:1 2303:1 2304:1 
-0.01147990181258391 -0.01739436436294498 0.01939545479411577 0.01497097243835164 1:3 2:2 16:1 19:1 22:1 23:1 24:1 27:3 48:1 81:1 82:1 90:1 161:1 233:1 267:1 288:1 322:1 363:1 419:2 633:1 652:1 743:2 747:1 783:2 784:1 1234:1 1419:1 2328:1 2329:2 2330:2 2331:2 2332:2 2333:2 2334:2 2335:1 2336:1 2337:1 2338:1 2339:1 2340:1 2341:1 2342:1 
-0.01292948722193096 -0.01230035281025895 0.004597184432592769 0 1:5 2:1 14:1 16:3 19:2 27:5 29:1 33:1 38:4 45:1 47:1 48:1 49:8 56:1 58:1 61:2 62:2 63:1 65:1 81:1 82:1 90:1 101:1 110:1 129:1 171:1 179:1 221:1 251:1 260:1 325:1 361:1 368:2 377:1 392:1 419:1 475:1 517:1 669:1 690:1 791:1 811:1 877:1 921:1 962:1 1027:1 1089:1 1110:1 1171:1 1320:1 1337:1 1338:1 1419:1 1560:1 1597:1 1604:1 1670:1 1745:1 1803:1 1810:1 1818:1 1889:1 2118:1 2196:1 2343:1 2344:4 2345:1 2346:1 2347:1 2348:1 2349:2 2350:1 2351:1 2352:1 2353:1 2354:1 2355:2 2356:2 2357:1 2358:1 2359:1 2360:2 2361:1 2362:1 2363:1 2364:1 2365:1 2366:1 
-0.002229500059430547 -0.01186675159050071 0.007418069421686224 0.01622614895987643 16:1 19:1 24:1 27:1 38:1 49:2 53:1 56:1 62:3 63:1 76:1 81:1 82:1 88:1 104:1 105:1 123:1 126:1 151:1 179:1 221:1 257:1 322:1 325:1 334:1 509:1 594:1 663:1 1056:1 1471:1 1537:1 1632:1 1883:1 2046:1 2193:2 2549:1 2550:2 2551:1 2552:1 2553:1 2554:1 2555:1 2556:1 2557:1 2558:1 
-0.005377845526344676 -0.007162255135651681 0.01383166717979989 0.01337799943948857 1:3 5:1 11:1 14:8 16:4 17:1 19:1 27:15 29:1 38:2 46:1 47:1 48:6 49:1 56:1 62:3 63:1 71:1 72:1 81:1 82:3 98:1 110:1 157:1 159:1 179:2 216:1 218:1 221:2 251:2 279:1 282:1 292:1 301:1 325:4 353:1 368:1 419:2 426:1 479:1 484:1 500:1 512:1 514:1 636:1 644:1 650:1 690:1 877:1 905:1 967:1 968:1 1035:1 1070:1 1117:1 1143:1 1299:1 1420:1 1603:1 1636:1 1765:1 1819:1 1939:1 1967:1 2049:2 2158:1 2294:1 2346:1 2354:1 2571:1 2643:1 2864:1 2887:1 3023:5 3024:2 3025:1 3026:1 3027:1 3028:1 3029:1 3030:1 3031:1 3032:1 3033:1 3034:1 3035:1 3036:1 3037:1 3038:1 3039:1 3040:1 3041:1 3042:1 3043:1 3044:1 3045:1 3046:1 3047:1 3048:1 3049:1 3050:1 3051:1 3052:1 3053:1 3054:1 3055:1 3056:1 3057:3 3058:1 3059:1 3060:1 3061:1 3062:1 3063:1 3064:1 3065:1 3066:1 3067:1 3068:1 3069:1 3070:1 3071:1 
-0.005328359465338313 -0.006096511469480381 0.002177334698089433 0.002089893754711303 1:10 11:2 14:5 16:9 19:2 27:17 29:3 33:2 38:6 43:1 46:1 47:1 48:9 49:1 61:3 62:1 63:1 64:2 65:1 69:1 71:2 81:1 82:1 88:2 96:1 110:4 129:1 157:1 161:2 166:1 169:1 189:2 202:1 213:3 218:2 221:2 233:1 245:2 257:1 263:1 266:2 305:2 325:2 353:2 354:1 368:1 412:1 419:1 421:1 442:1 475:1 479:2 512:2 514:1 772:1 797:1 858:1 867:1 874:1 894:2 896:1 1019:1 1023:1 1031:1 1060:1 1067:2 1097:1 1110:1 1117:1 1120:1 1156:1 1226:1 1258:1 1342:1 1356:1 1392:2 1657:1 1749:1 1812:2 1884:1 1915:1 1952:2 1993:1 1997:1 2035:1 2076:1 2238:1 2251:1 2290:1 2399:1 2776:1 2821:1 3067:4 3072:7 3073:1 3074:1 3075:1 3076:1 3077:1 3078:7 3079:2 3080:1 3081:1 3082:2 3083:1 3084:1 3085:1 3086:1 3087:1 3088:4 3089:1 3090:1 3091:2 3092:1 3093:2 3094:1 3095:1 3096:1 3097:1 
-0.04697779652841801 -0.02744864228690603 0.02369592190620468 0.02559208786684121 1:3 2:1 5:1 14:1 16:1 19:1 27:1 29:2 45:1 48:1 49:4 61:2 62:1 72:1 81:1 82:1 129:1 166:1 237:1 255:2 279:1 377:1 418:1 497:1 592:1 701:1 789:1 1268:1 1316:1 2057:1 2321:1 2341:1 2566:1 2568:1 2782:1 3098:1 3099:1 3100:1 3101:1 3102:1 3103:1 3104:1 3105:1 
-0.02613638990613362 -0.01840704537564266 0.01014027424023051 0.01185623555969242 1:3 14:2 16:3 19:2 24:1 27:4 29:4 38:2 43:1 45:1 47:1 48:3 49:3 53:1 56:1 61:1 62:4 63:1 64:1 65:1 81:1 82:1 88:1 101:1 117:1 120:1 123:1 124:1 125:1 126:1 137:1 188:1 202:1 206:3 218:1 221:4 275:1 356:1 396:1 421:1 427:1 442:1 557:1 574:1 594:1 690:1 729:1 762:1 1055:1 1064:1 1098:1 1180:1 1662:1 1823:1 1884:1 2399:1 2584:1 2629:1 2647:1 2859:1 3130:1 3131:1 3132:1 3133:1 3134:1 3135:1 3136:1 3137:1 3138:1 3139:1 3140:1 3141:1 3142:1 3143:1 
-0.01459082388989882 -0.01766215009401588 0.01382070425170554 0.00991205565128477 1:5 11:6 14:1 16:3 19:4 23:1 27:10 38:3 48:6 50:1 56:2 58:2 64:1 72:1 76:1 81:1 82:2 111:1 112:1 113:1 127:1 137:1 157:1 166:1 325:1 370:1 419:2 442:1 476:1 541:1 652:1 678:1 716:1 717:1 718:1 877:1 963:1 1028:1 1202:1 1440:1 1577:1 1590:1 1693:3 1839:1 1940:1 2017:1 2224:1 2417:1 2438:1 2470:1 2506:1 2729:1 2748:1 2922:1 2988:2 3067:2 3168:1 3169:1 3170:1 3171:2 3172:1 3173:2 3174:1 3175:1 3176:1 3177:1 3178:1 3179:1 3180:1 3181:1 3182:1 3183:1 3184:1 3185:1 3186:1 3187:1 
-0.01364263400540864 -0.0191508319874114 0.007662062788920397 0.02359136787776352 1:5 14:4 16:1 19:1 27:9 29:1 33:1 38:2 45:1 48:3 49:2 56:1 62:9 63:3 72:1 81:1 82:2 87:1 129:1 137:1 161:2 162:1 179:1 195:1 275:1 287:1 317:2 325:1 353:1 370:1 385:1 436:1 616:1 790:1 837:1 921:1 1056:1 1115:2 1124:1 1464:1 1740:1 1768:1 2164:3 2477:1 2478:1 3076:1 3149:2 3180:1 3260:1 3261:1 3262:1 3263:1 3264:1 3265:1 3266:2 3267:1 3268:1 3269:1 3270:1 3271:1 3272:1 3273:1 3274:1 3275:1 3276:1 3277:1 3278:1 3279:1 3280:1 
-0.01451454421732185 -0.009609303847402242 0.009815176268978846 0.01496602639347317 1:2 5:1 14:2 16:3 23:1 27:6 47:2 48:3 49:2 61:1 62:4 63:2 81:1 82:2 87:1 88:3 97:1 123:1 124:1 125:1 126:1 129:1 245:1 248:1 251:1 322:1 325:1 339:1 370:1 403:1 442:1 574:1 667:1 762:1 777:1 830:1 1050:1 1060:1 1110:1 1840:1 2353:1 2495:1 3142:1 3143:1 3147:1 3181:1 3213:1 3339:2 3340:1 3341:1 3342:1 3343:1 3344:1 3345:1 3346:1 3347:1 3348:2 3349:1 3350:1 3351:1 3352:1 3353:1 3354:1 3355:1 3356:1 3357:1 
-0.01532927585817322 -0.01410741834011914 0.01533002103610126 0.01651076275926533 1:2 14:2 16:1 24:1 27:3 38:1 49:1 61:1 62:4 63:2 81:1 82:2 88:1 123:1 126:1 161:1 221:2 239:1 316:1 325:2 388:1 471:1 477:1 512:1 530:1 574:1 591:1 772:2 921:1 1056:1 1683:1 1760:1 1831:1 1883:1 2043:1 2046:2 2514:1 2663:1 2859:1 3100:1 3296:1 3297:1 3298:1 3411:1 3412:2 3413:3 3414:1 3415:1 3416:1 3417:1 3418:1 3419:1 
-0.02236035817002006 -0.0272027099787374 0.03339648918166151 0.01751636232859609 11:2 16:1 27:2 40:1 43:2 47:2 48:1 62:2 65:1 69:1 81:1 82:1 88:1 123:1 124:1 125:1 126:1 129:1 137:2 166:1 245:1 248:1 257:1 388:2 419:1 423:1 484:1 762:1 1750:2 1888:1 1993:1 2625:1 2643:1 3142:1 3143:1 3381:1 3433:1 
-0.008053259452022034 -0.008659598348790907 0.006915144785037393 0.004735146136052665 1:3 5:1 14:4 16:5 27:9 29:6 33:3 38:4 43:1 47:2 48:2 49:2 53:1 61:1 62:1 71:1 72:1 81:1 82:2 88:3 97:1 101:1 105:1 129:2 132:1 161:1 175:2 179:1 213:1 218:1 248:1 263:1 266:1 277:1 279:1 282:1 308:1 325:1 368:1 377:2 413:1 423:1 500:1 512:1 600:1 662:1 699:1 726:1 734:1 735:1 736:1 743:1 755:1 812:1 835:1 854:1 987:1 1110:1 1272:1 1527:1 1538:1 1580:1 1831:1 1840:1 2095:1 2246:1 2479:1 2550:1 2777:1 3093:1 3444:1 3627:1 3628:1 3629:1 3630:1 3631:2 3632:1 3633:1 3634:1 3635:1 3636:1 3637:1 3638:1 3639:1 3640:1 3641:1 3642:1 3643:1 3644:1 3645:1 3646:1 3647:1 3648:1 3649:1 3650:1 3651:1 
-0.02536470596574667 -0.02132020218842675 0.01833459702885848 0.02752825808603438 1:3 14:1 19:1 38:1 48:2 56:1 62:2 71:1 81:1 82:1 88:1 123:1 126:1 137:1 161:1 221:1 396:1 471:1 576:1 577:1 578:1 579:1 580:1 581:1 1185:2 3034:1 3307:2 3521:1 3531:1 3633:1 3709:1 3710:1 3711:1 3712:1 3713:1 3714:1 3715:1 3716:1 3717:1 3718:1 3719:1 3720:1 3721:1 3722:1 
-0.0192234576290643 -0.01677775856918065 0.01032562147229995 0.0205830942013329 1:4 14:2 16:2 19:2 27:2 29:4 33:2 40:1 43:2 47:1 48:3 49:4 62:4 63:4 81:1 82:1 108:1 116:1 178:1 179:1 191:1 213:1 248:1 308:1 396:1 418:1 435:1 553:1 575:1 633:1 641:1 690:1 812:1 841:1 870:1 874:1 877:1 921:2 1019:1 1089:1 1180:1 1683:1 1750:1 2049:2 2365:1 2368:1 2647:1 2783:1 2864:1 3153:1 3828:2 3829:1 3830:1 3831:1 3832:1 3833:1 3834:1 3835:1 3836:1 3837:1 3838:1 3839:1 3840:1 3841:1 3842:1 
-0.01375028593486014 -0.0132184033965964 0.008414280158269005 0.007166482340347084 1:7 16:5 27:4 33:1 38:2 43:1 48:1 49:2 56:1 61:1 62:6 64:1 81:1 82:2 88:2 116:1 123:1 126:1 149:1 158:1 161:3 191:1 195:1 248:1 308:1 353:1 396:1 432:1 633:2 685:1 808:1 850:2 857:2 1161:1 1471:1 1537:1 1543:1 1615:1 1620:1 1682:1 2554:1 2555:1 2556:1 2557:1 2558:1 2577:1 2629:2 3076:1 3690:2 3759:1 4001:2 4002:1 4003:1 4004:1 4005:1 4006:1 4007:1 4008:3 4009:1 4010:1 4011:1 4012:1 4013:1 4014:1 4015:1 4016:1 4017:1 
-0.007080689734824253 -0.01244418204302172 0.01374653830892429 0.00187702470316163 1:4 2:1 9:1 14:4 16:6 19:3 24:2 27:9 29:2 32:1 38:4 42:1 43:1 48:3 49:2 57:1 71:1 76:1 81:1 82:2 88:3 129:2 137:1 149:2 161:1 213:1 218:1 232:1 255:1 267:2 324:1 325:1 334:1 368:1 388:1 394:1 396:1 409:1 418:1 480:1 531:1 616:1 685:1 702:2 742:1 850:1 967:1 1070:1 1200:1 1243:1 1339:1 1746:1 1914:1 1967:1 1988:1 2015:1 2211:3 2458:1 2849:1 2859:1 2912:1 3649:1 3680:1 3768:1 3909:1 4001:1 4021:1 4090:2 4091:1 4092:1 4093:1 4094:1 4095:1 4096:1 4097:1 4098:1 4099:1 4100:1 4101:1 4102:1 4103:1 4104:1 4105:1 4106:1 4107:1 4108:1 4109:1 4110:1 4111:1 4112:1 4113:1 
-0.01396257995197062 -0.0152403627140312 0.01842763176918409 0.01137042523833522 1:1 14:1 16:4 19:1 27:1 29:2 31:1 38:1 40:1 46:1 48:3 49:1 53:2 61:1 62:2 65:1 81:1 82:1 87:1 88:1 170:1 221:1 237:1 353:1 368:1 419:1 479:1 574:1 614:1 728:1 732:1 832:2 1059:1 1342:1 1389:1 2197:1 2495:1 2685:1 2742:1 3680:1 4197:2 4198:1 4199:1 4200:3 4201:1 4202:1 4203:1 4204:2 4205:1 4206:1 4207:1 4208:1 4209:1 4210:1 4211:1 4212:1 4213:1 4214:1 4215:1 
-0.01368118558559406 -0.01205354196863309 0.01327533878752706 0.008882642635174269 1:1 11:1 14:5 15:1 16:2 19:1 27:7 38:6 48:6 49:1 56:2 62:3 63:3 71:2 81:1 82:1 88:2 90:1 171:1 179:1 191:1 218:1 221:1 247:1 325:1 338:1 413:2 442:1 465:1 479:1 557:1 574:1 594:1 634:1 684:1 729:1 816:1 968:1 1060:1 1717:1 1741:1 1777:1 1805:1 1961:1 2049:1 2531:2 2859:1 2912:1 2960:1 3070:1 3427:1 3736:1 3768:1 3834:1 4300:2 4301:1 4302:1 4303:1 4304:1 4305:1 4306:1 4307:1 4308:2 4309:2 4310:1 4311:1 4312:1 4313:1 4314:1 4315:1 4316:1 4317:1 4318:1 4319:1 4320:1 4321:1 4322:1 4323:1 4324:1 4325:1 
-0.005091484009641959 -0.005562187820055878 0.009380993492232237 0.005271381394806346 1:6 11:4 12:1 14:8 16:5 19:7 27:18 29:3 33:1 34:1 38:4 46:1 47:1 48:11 49:2 53:1 56:2 61:1 62:1 71:3 81:1 82:2 88:2 116:1 161:3 163:1 164:1 178:1 179:1 195:1 196:1 202:1 221:2 255:1 308:1 323:1 325:2 353:2 377:2 388:1 395:1 419:6 460:1 553:1 557:1 575:1 614:1 622:1 631:1 653:2 672:1 690:1 708:1 712:1 793:1 795:1 825:1 877:2 941:1 984:1 1003:1 1018:1 1097:1 1304:1 1316:1 1345:2 1495:1 1560:1 1583:1 1592:1 1602:1 1637:1 1689:1 1868:1 1891:1 1902:1 1907:1 2143:1 2197:1 2209:1 2353:1 2370:1 2478:1 2491:2 2553:1 2747:1 2904:3 2928:1 3040:1 3279:1 3363:1 3427:1 3455:1 3491:1 3505:1 3789:1 3818:1 3838:1 3930:1 3998:1 4129:1 4130:1 4316:1 4359:1 4373:2 4374:2 4375:2 4376:1 4377:2 4378:1 4379:1 4380:1 4381:1 4382:1 4383:3 4384:3 4385:1 4386:1 4387:1 4388:2 4389:1 4390:1 4391:1 4392:1 4393:1 4394:1 4395:1 4396:1 4397:1 4398:1 4399:1 4400:1 4401:1 4402:1 4403:1 4404:1 4405:1 4406:1 4407:1 4408:1 4409:1 4410:1 4411:1 4412:1 4413:1 4414:1 4415:1 4416:1 4417:1 4418:1 4419:1 4420:1 4421:1 4422:1 
-0.01745615674802014 -0.02142175867300568 0.021552414881956 0.01943955845342846 1:1 11:2 14:2 16:4 19:1 27:8 29:1 31:1 38:4 43:1 47:2 48:1 49:1 56:1 58:1 62:4 63:2 71:3 81:1 82:1 97:2 123:1 125:1 126:1 129:2 218:2 221:3 257:1 378:1 388:1 394:1 442:1 445:1 468:1 557:1 604:1 605:1 606:1 607:1 629:1 684:1 713:1 728:1 896:1 942:1 952:2 956:1 1031:1 1056:3 1110:1 1249:1 1278:1 1434:1 1559:1 1575:1 1696:1 2046:1 2608:1 3069:1 3175:1 4179:4 4431:1 4432:1 4433:1 4434:1 4435:1 4436:1 4437:1 
-0.01838714573299319 -0.01111006780014509 0.01245858359639585 0.01323197697036086 1:4 2:1 14:2 16:2 27:1 29:4 42:1 48:3 49:2 52:1 59:1 62:1 63:1 81:1 82:2 88:2 179:2 221:1 236:1 280:1 325:1 353:1 368:1 388:1 622:1 729:1 732:1 812:1 816:1 855:2 860:2 877:1 980:1 1075:1 1089:1 1110:1 1302:1 1305:1 1309:1 1427:1 1720:2 1780:1 1803:2 1961:1 2051:1 2202:1 2629:2 2714:1 3362:1 3589:1 4161:1 4482:1 4483:1 4484:1 4485:1 4486:1 4487:1 4488:1 4489:1 4490:1 4491:1 4492:1 4493:1 4494:1 4495:1 4496:1 4497:1 4498:1 4499:1 4500:1 4501:1 
-0.008217024085395683 -0.0118036201386341 0.009091567851925719 0.009123174135444641 1:4 11:1 12:1 14:8 16:4 27:6 33:1 38:3 42:1 43:1 48:2 49:4 56:3 61:2 62:1 63:1 71:1 81:1 82:1 126:1 128:1 129:1 136:1 171:2 197:1 213:2 221:1 263:1 325:1 368:1 377:2 388:1 392:1 396:1 422:2 432:1 445:1 500:1 510:1 512:2 557:1 575:1 693:1 768:1 772:3 796:1 836:1 858:1 874:1 877:1 1085:1 1089:1 1190:1 1261:1 1311:1 1424:1 1513:1 1529:1 1548:1 1551:1 1697:1 1845:1 1847:1 1914:1 1997:1 2044:1 2050:1 2056:1 2155:1 2193:1 2606:1 2728:1 3193:1 3626:1 3798:1 4797:1 4899:1 4900:1 4901:2 4902:1 4903:1 4904:1 4905:1 4906:1 4907:1 4908:1 4909:1 4910:1 4911:1 4912:1 4913:1 4914:1 4915:1 4916:1 4917:2 4918:1 4919:1 4920:1 4921:1 4922:1 4923:1 
-0.006688706824034942 -0.01459022902491098 0.01795503990636223 0.009204589328764109 1:5 14:3 16:3 19:5 27:4 33:1 40:1 48:1 49:1 56:1 81:1 82:1 106:1 110:1 117:1 129:1 137:1 166:1 172:1 178:1 242:1 317:1 396:2 419:2 425:1 552:1 775:1 793:1 1190:1 1222:1 1243:1 1311:1 1495:1 1839:1 1845:1 1896:1 2233:1 2477:1 2656:1 2694:1 3050:1 3108:2 3656:1 4003:1 4375:1 4800:1 5094:1 5095:1 5096:1 5097:1 5098:1 5099:1 5100:1 5101:1 5102:1 5103:1 5104:1 5105:1 5106:1 5107:1 5108:1 5109:1 
-0.001620525109833758 -0.006652332491332668 0.005022802122529944 0.002171476046569719 1:5 2:2 6:1 14:2 16:3 19:4 22:1 23:1 24:1 27:4 29:1 38:4 48:2 49:5 56:2 58:1 61:1 62:2 63:2 69:1 71:3 72:1 81:1 82:3 87:1 88:2 90:1 125:1 161:1 179:1 191:2 202:1 213:1 221:1 248:1 251:1 279:1 365:1 400:1 455:1 469:1 476:1 480:1 504:1 557:1 633:2 636:1 725:1 867:1 946:1 968:1 1075:2 1153:1 1316:1 1356:1 1427:1 1442:1 1578:1 1766:1 1823:1 1914:1 2268:1 2269:1 2270:1 2271:1 2351:1 2397:1 2399:1 2458:1 2465:1 2550:1 2684:1 3056:1 3225:1 3496:1 3775:1 4144:1 4531:1 4843:1 5142:3 5143:1 5144:2 5145:2 5146:1 5147:1 5148:1 5149:1 5150:1 5151:1 5152:1 5153:1 5154:1 5155:1 5156:1 5157:1 5158:1 5159:1 5160:1 5161:1 5162:1 5163:1 5164:1 5165:1 5166:1 5167:1 5168:1 5169:1 5170:1 5171:1 5172:1 5173:1 5174:1 
-0.0007668489564448745 -0.003219030673231483 0.0009291545266504079 0.00369138603368037 1:8 14:4 16:2 19:3 27:10 30:1 32:1 33:1 38:4 43:1 47:1 48:2 49:4 56:5 58:1 59:1 61:2 62:10 63:5 76:1 81:1 82:2 88:3 123:1 126:1 127:1 128:1 191:3 206:1 213:1 221:2 236:1 245:1 303:1 368:3 385:1 396:1 416:1 484:1 530:1 574:3 594:1 597:1 616:1 633:1 725:1 804:1 937:1 965:1 979:5 1056:1 1075:1 1117:1 1118:1 1261:1 1287:1 1316:1 1338:1 1470:1 1583:2 1671:1 1728:1 1997:1 2016:1 2201:1 2293:1 2310:1 2341:2 2394:1 2399:1 2500:1 2542:1 2605:1 2652:1 2897:1 2922:1 3012:1 3068:1 3151:1 3265:1 3328:1 3338:1 3427:1 3559:1 3854:1 4119:1 4885:1 5174:1 5319:2 5370:1 5371:1 5372:1 5373:4 5374:2 5375:1 5376:1 5377:1 5378:1 5379:1 5380:1 5381:1 5382:1 5383:1 5384:1 5385:1 5386:1 5387:1 5388:1 5389:1 5390:1 5391:1 5392:1 5393:1 5394:1 5395:1 5396:1 5397:1 5398:1 5399:1 5400:1 5401:1 5402:1 
-0.01224816926383634 -0.006890500702841446 0.009139992664914108 0.01358844590110748 1:4 2:1 14:3 16:2 27:7 29:1 31:2 38:4 49:1 56:1 59:4 61:1 62:8 63:4 71:2 73:1 81:1 82:2 94:1 123:1 126:1 137:1 161:1 191:2 215:1 221:3 248:1 325:1 353:1 409:1 425:1 574:1 581:1 590:1 594:1 633:1 948:1 1056:1 1060:1 1097:1 1115:1 1258:1 1337:1 1427:1 1750:2 1826:1 1827:1 2046:1 2193:2 2199:1 2664:2 2763:1 3076:1 3535:1 3768:1 5313:1 5495:1 5496:4 5497:1 5498:1 5499:1 5500:1 5501:1 5502:2 5503:1 5504:1 5505:1 5506:1 5507:1 5508:1 
-0.02086857175021056 -0.03175914246182125 0.03180508302104476 0.02718358117224442 14:1 16:2 19:1 27:2 30:1 48:4 73:1 81:1 82:1 108:1 125:1 129:2 151:1 245:1 251:1 259:1 368:1 419:2 575:1 657:1 937:1 1058:1 1224:1 1280:1 1281:1 1282:1 1440:1 1455:1 1512:1 1901:1 2163:1 2287:1 3582:1 3674:1 3726:1 4528:1 5065:1 5525:1 5526:1 5527:1 5528:1 5529:1 5530:1 5531:1 5532:1 5533:1 5534:1 5535:1 5536:1 
-0.006303986055115135 -0.005482341878013585 0.00433274847040368 0.0009054719162287233 1:5 11:1 14:1 16:11 19:5 24:2 27:13 29:4 38:1 43:1 45:1 47:1 48:9 49:1 61:2 62:3 63:1 64:1 71:1 81:1 82:1 88:4 94:1 96:2 101:2 110:1 149:2 161:1 166:1 171:1 179:1 197:1 202:5 213:4 218:1 221:2 245:1 251:1 254:1 259:1 282:1 305:1 325:3 374:1 409:1 418:2 428:2 436:1 471:1 476:1 553:1 574:1 589:1 593:1 595:1 678:1 713:1 753:1 777:1 778:1 782:1 812:2 1016:1 1019:1 1038:1 1058:1 1200:2 1300:1 1580:1 1696:1 1720:1 1741:1 1883:1 2149:1 2291:2 2729:1 2890:1 3100:1 3132:1 3292:1 4066:1 4279:1 4704:1 4833:1 5559:1 5673:1 5736:1 5771:1 5772:1 5773:1 5774:2 5775:1 5776:1 5777:3 5778:1 5779:1 5780:1 5781:1 5782:1 5783:1 5784:2 5785:1 5786:2 5787:3 5788:1 5789:1 5790:1 5791:1 5792:1 5793:1 5794:1 5795:1 5796:1 5797:1 5798:1 5799:1 5800:1 5801:1 5802:1 5803:1 5804:1 5805:1 
-0.01549153867633403 -0.02260242133390853 0.01732468340220422 0.01222149735429248 1:3 14:2 16:2 19:1 27:4 29:1 33:1 38:1 48:1 49:1 61:2 62:2 71:1 81:1 82:1 86:1 88:2 107:1 112:1 123:1 126:1 128:1 163:1 179:1 203:1 218:1 248:1 368:1 370:1 471:1 574:1 790:1 793:1 1575:1 1736:1 1812:1 3352:1 3428:1 3429:1 3592:1 4091:1 4134:1 4520:2 4716:1 5045:1 5831:2 5832:2 5833:1 5834:1 5835:1 5836:1 5837:1 5838:1 5839:1 5840:1 5841:1 5842:1 5843:1 5844:1 5845:1 5846:1 
-0.007925055318886737 -0.005337549824837858 0.003416477308487374 0 1:12 2:2 8:1 9:1 14:8 16:8 17:1 23:1 24:1 27:6 31:10 32:1 38:3 43:1 46:1 47:1 48:8 49:4 61:2 62:3 63:2 71:1 81:1 82:2 87:2 88:1 97:7 110:1 128:1 129:2 137:3 161:4 191:1 195:1 196:1 213:1 221:4 257:2 305:1 325:1 377:1 385:1 388:1 418:1 470:1 471:1 479:1 498:1 512:1 514:1 517:2 553:1 557:1 574:1 575:4 594:2 600:1 690:5 693:5 702:2 729:1 822:1 860:1 942:1 967:1 975:1 1019:1 1268:1 1367:1 1560:1 1614:1 1653:1 1697:1 1724:1 1816:2 1832:1 1845:1 1897:1 1961:1 2193:1 2402:1 2455:1 2714:1 2782:1 2892:1 3164:1 3178:1 3180:1 3341:1 3633:1 4481:1 4505:1 4645:2 5415:1 5847:5 5848:5 5849:2 5850:2 5851:1 5852:1 5853:1 5854:1 5855:1 5856:1 5857:1 5858:1 5859:1 5860:1 5861:1 5862:1 5863:1 5864:1 5865:1 5866:1 5867:1 5868:1 5869:1 5870:1 5871:1 5872:1 
-0.007185837341256635 -0.02243134595376836 0.0231672189652443 0.006742652904203933 1:1 14:2 16:2 19:4 21:1 27:5 38:1 48:2 56:1 61:2 62:2 74:1 75:1 81:1 82:1 114:1 116:1 123:1 126:1 166:1 191:1 248:1 343:1 377:1 388:2 455:1 476:1 530:1 557:1 575:1 633:1 636:2 1182:1 1303:1 1466:1 1636:1 1750:1 1866:1 2283:1 2399:1 2832:1 3246:1 3705:1 3706:1 3707:2 3708:1 4272:1 4316:1 5174:1 5873:1 5874:1 5875:1 5876:1 5877:1 5878:1 5879:1 5880:1 5881:1 5882:1 5883:1 5884:1 
-0.0140332282639582 -0.02490067201299102 0.01971933384541234 0.02805574975102561 1:2 14:3 19:4 27:5 38:1 48:2 49:2 56:1 62:2 81:1 82:1 96:1 123:1 126:1 137:1 161:1 171:1 196:1 221:1 316:1 322:1 334:1 338:1 479:1 684:1 771:1 1018:1 1486:1 1661:1 1670:1 1883:1 2032:1 2323:1 2733:1 2914:1 3209:1 3210:2 3211:1 4124:1 4511:1 4531:1 4769:1 5198:1 6007:1 6008:1 
-0.009895543090319149 -0.014478727061539 0.01071937087061209 0.01213361578159404 1:5 5:1 14:4 16:5 19:3 22:1 24:2 27:7 29:2 38:3 39:1 44:1 45:1 48:7 56:1 57:1 61:1 62:5 63:1 72:1 81:1 82:3 110:1 123:1 124:1 125:1 126:1 141:1 149:1 213:2 288:2 325:1 334:1 353:1 383:1 386:1 396:1 520:1 574:1 594:1 600:1 622:1 633:1 644:1 684:1 777:1 1031:1 1102:1 1115:1 1150:1 1262:1 1360:1 1389:1 1442:1 1623:1 1766:1 1852:1 1910:1 1981:1 2082:1 2287:1 2465:1 2478:1 2788:1 2816:1 3092:1 3169:1 3182:1 3994:1 4418:1 4835:1 5450:1 5502:2 5711:1 6046:3 6047:1 6048:1 6049:1 6050:1 6051:1 6052:1 6053:1 6054:1 6055:1 6056:1 6057:1 6058:1 6059:1 6060:1 6061:1 6062:1 6063:1 
-0.009980835707545765 -0.01507246217760166 0.009613837672503817 0.01376026581705488 1:5 6:1 11:3 14:5 16:2 19:1 27:5 40:1 48:2 56:2 61:1 62:5 69:1 71:1 76:1 81:1 82:1 137:2 151:1 157:1 242:2 282:1 368:3 377:1 388:1 476:1 479:1 948:1 979:1 1326:1 1339:1 1440:1 1974:1 2312:1 2320:1 2644:1 3154:1 3218:1 3312:1 3543:1 3642:1 3784:1 4355:1 4356:1 4572:1 4641:1 4716:1 5557:1 5940:1 6041:1 6155:1 6156:1 6157:1 6158:1 6159:1 6160:1 6161:1 6162:1 6163:1 6164:1 6165:1 6166:1 6167:1 6168:1 6169:1 6170:1 6171:1 6172:1 6173:1 
-0.03146938491715361 -0.02328224135601122 0.02543157403118206 0.026307445619051 1:2 14:2 16:3 19:2 27:6 29:1 38:1 48:1 49:1 71:1 81:1 82:2 107:1 149:1 161:1 172:1 237:1 283:1 368:1 396:1 498:1 678:1 874:1 882:1 921:1 1033:1 2686:1 3351:1 3715:1 4520:1 4526:1 5572:1 6174:1 6175:1 6176:2 6177:1 6178:1 6179:1 6180:2 6181:1 6182:1 6183:1 6184:1 6185:1 6186:1 
-0.01811695594052257 -0.01590863037713783 0.02120988270603412 0.0141633921380778 1:2 2:1 14:2 16:2 19:1 27:2 38:1 48:2 49:2 56:1 62:2 81:1 82:1 87:1 123:1 126:1 128:1 171:1 191:1 279:1 321:3 322:3 487:1 530:1 1599:1 1836:1 2321:1 2489:1 2732:1 2905:2 3532:1 6203:1 6204:1 6205:1 6206:1 6207:1 6208:1 6209:1 6210:1 6211:1 6212:1 6213:1 6214:1 
-0.03070357258258179 -0.02980058039512303 -0.02614528650365167 0.03062083819519981 1:3 14:1 19:3 27:2 31:2 38:2 48:2 56:1 62:1 63:1 81:1 82:1 97:1 118:1 158:1 172:1 191:1 218:1 325:2 368:1 377:1 471:1 499:1 531:1 532:1 533:1 534:1 535:1 536:2 537:1 538:1 539:1 540:1 541:1 542:1 543:1 544:1 545:1 546:1 547:1 548:1 549:1 550:1 551:1 552:1 553:1 
-0.00633538281602139 -0.01301508810576478 -0.02309179408722872 0.008364003231313515 14:1 16:3 19:2 20:1 24:1 27:3 29:1 38:1 47:1 71:1 81:1 82:1 129:1 191:1 213:1 218:1 279:1 325:1 388:2 413:1 419:1 476:1 500:1 645:1 685:1 799:1 800:1 801:2 802:2 803:1 804:1 805:1 806:1 807:1 808:1 809:1 810:1 811:1 812:1 813:1 814:1 815:1 816:1 817:1 818:1 819:1 820:1 821:1 
-0.03118684058703878 -0.03307437741828159 -0.02925134483623468 0.03786122322870145 1:1 14:1 27:2 29:1 48:3 62:4 63:4 71:1 81:1 82:1 84:1 88:1 108:1 221:1 636:1 743:1 776:1 822:1 823:3 824:1 825:2 826:1 827:1 828:1 829:1 830:1 831:1 832:1 833:1 834:1 835:1 836:1 837:1 838:1 839:1 840:1 841:1 842:1 843:1 844:1 
-0.01296912749872603 -0.007127290750343008 -0.01156065790131066 0.003286705342468598 1:1 2:1 14:2 16:5 19:2 27:5 29:1 31:3 38:1 40:1 43:1 48:3 49:1 61:2 65:2 71:2 81:1 82:3 97:1 128:1 137:1 149:1 166:1 191:1 197:1 204:1 217:1 218:1 221:1 325:1 368:1 425:1 470:1 499:1 553:1 557:2 758:1 921:1 942:1 943:1 944:1 945:1 946:1 947:1 948:1 949:1 950:1 951:1 952:1 953:1 954:1 955:1 956:1 957:1 958:1 959:1 960:1 961:1 962:1 963:1 964:1 965:1 966:1 967:1 968:1 969:1 970:1 971:1 972:1 973:1 974:1 975:1 976:1 977:1 978:1 979:1 980:1 981:1 
-0.007335884357958863 -0.001759545356207843 -0.003836161849737943 0.000614048228820049 1:1 11:2 14:2 16:11 19:1 27:7 29:5 31:3 33:1 38:5 43:1 47:3 48:6 49:1 52:1 57:2 58:2 61:1 62:5 63:5 64:1 65:1 71:1 81:1 82:1 84:1 87:1 88:2 96:1 97:2 127:1 137:1 191:1 202:2 213:1 215:1 221:4 239:1 242:1 251:1 282:1 322:1 324:1 353:1 419:3 499:1 703:1 728:1 832:1 846:1 896:3 933:1 942:1 1057:1 1081:1 1089:1 1090:1 1091:1 1092:1 1093:1 1094:1 1095:1 1096:1 1097:1 1098:1 1099:1 1100:1 1101:1 1102:1 1103:1 1104:1 1105:1 1106:1 1107:1 1108:4 1109:1 1110:1 1111:2 1112:2 1113:1 1114:1 1115:1 1116:3 1117:1 1118:1 1119:1 1120:1 1121:1 1122:1 1123:2 1124:1 1125:1 1126:1 1127:1 1128:1 1129:1 1130:1 1131:1 1132:1 1133:1 1134:1 1135:1 1136:1 1137:1 1138:1 1139:1 1140:1 1141:1 1142:1 1143:1 1144:1 1145:1 1146:1 
-0.002614741275197733 -0.004373258388450527 -0.00478392207457163 0 1:6 9:1 11:8 14:1 16:16 19:7 27:6 32:2 38:1 40:1 43:3 47:1 48:9 49:3 57:1 61:3 62:2 63:2 66:1 72:1 81:1 82:3 88:1 110:2 117:1 125:1 137:4 145:1 149:1 158:1 161:2 191:1 203:1 221:5 245:1 251:2 255:2 263:1 276:1 282:1 363:1 388:5 392:1 396:1 398:1 419:3 425:1 442:2 476:1 498:2 574:1 575:1 593:1 641:1 743:3 793:1 796:1 858:1 860:1 874:1 877:3 931:1 953:2 1018:1 1023:1 1051:1 1056:1 1097:2 1102:1 1103:1 1115:1 1127:1 1128:1 1213:1 1214:3 1215:1 1216:3 1217:1 1218:1 1219:1 1220:1 1221:1 1222:1 1223:1 1224:1 1225:1 1226:2 1227:1 1228:1 1229:1 1230:3 1231:1 1232:2 1233:1 1234:2 1235:2 1236:1 1237:2 1238:1 1239:1 1240:1 1241:1 1242:1 1243:2 1244:1 1245:1 1246:1 1247:1 1248:1 1249:2 1250:1 1251:5 1252:1 1253:1 1254:2 1255:1 1256:1 1257:2 1258:2 1259:1 1260:1 1261:1 1262:1 1263:2 1264:1 1265:1 1266:1 1267:1 1268:1 1269:1 1270:1 1271:1 1272:1 1273:1 1274:2 1275:1 1276:1 1277:1 1278:1 1279:1 1280:1 1281:1 1282:1 
-0.01748634896075426 -0.01602960600863215 -0.01241773493088609 0.01263763412343691 1:3 2:1 11:1 14:1 16:5 19:3 24:3 27:7 31:3 38:3 46:1 48:5 49:2 52:1 61:1 62:3 63:1 65:1 81:1 82:4 97:2 121:2 122:1 123:1 124:1 125:1 126:1 129:1 137:1 149:1 178:1 179:1 221:1 255:1 396:1 523:1 557:1 690:2 728:1 786:1 797:1 812:1 860:1 874:1 896:2 915:1 957:1 1022:1 1028:1 1044:1 1220:1 1226:1 1299:1 1329:1 1417:1 1588:1 1637:1 1711:1 1712:1 1713:3 1714:1 1715:1 1716:1 1717:3 1718:1 1719:1 1720:1 1721:1 1722:1 1723:1 1724:1 1725:1 1726:1 1727:1 1728:1 1729:1 1730:1 1731:1 1732:1 1733:1 1734:1 1735:2 1736:1 1737:1 1738:1 1739:1 1740:1 
-0.03927127980305814 -0.03584260869394996 -0.03572577132609299 0.03345935123410371 1:2 14:3 16:2 27:4 29:1 38:2 47:2 48:1 49:1 61:1 62:1 63:1 81:1 82:1 131:1 221:1 308:1 385:1 386:1 1056:1 1478:1 1626:1 1670:1 1967:1 1985:1 1986:1 1987:1 1988:1 1989:1 1990:2 1991:1 1992:1 1993:1 1994:1 1995:1 1996:1 1997:1 1998:1 1999:1 2000:1 2001:1 2002:1 
-0.02360436919786998 -0.02730750307834798 -0.02374562294639304 0.0182802650462578 1:4 2:2 14:1 16:3 19:2 20:1 24:1 27:3 44:1 47:2 49:1 62:4 64:1 81:1 82:2 87:1 110:1 123:1 126:1 129:2 195:1 197:1 318:1 500:1 574:1 586:1 808:1 877:1 911:1 917:1 1023:1 1075:1 1262:1 1971:1 2013:1 2014:1 2015:1 2016:1 2017:1 2018:2 2019:1 2020:1 2021:1 2022:1 2023:1 2024:1 2025:1 2026:1 2027:1 2028:2 2029:1 2030:1 2031:1 2032:1 
-0.02576063172179313 -0.03512127049401707 -0.03278322950311274 0.04546639756543161 1:1 14:2 19:1 22:2 23:1 48:1 62:2 81:1 82:1 106:1 123:1 126:1 157:1 277:1 368:1 419:2 557:1 558:1 569:1 796:1 822:1 1509:1 2032:1 2111:1 2320:1 2321:1 2322:1 2323:1 2324:1 2325:1 2326:1 2327:1 
-0.01176905042253569 -0.002123116910730145 -0.004925958468564426 0.005743752845135302 1:4 16:8 19:1 21:1 27:4 29:2 31:2 33:1 38:1 40:1 42:1 43:3 45:1 47:4 48:5 49:3 61:1 71:1 81:1 82:1 88:1 97:4 104:1 111:1 112:1 113:1 120:2 127:1 161:1 197:1 201:1 218:1 221:3 248:1 255:1 325:4 365:1 368:1 378:1 419:1 442:1 476:1 500:1 512:1 575:1 600:3 603:1 611:1 702:1 704:1 712:1 716:1 717:1 718:1 746:1 855:1 858:3 893:4 913:3 915:1 933:1 951:2 952:1 1031:1 1056:2 1097:1 1200:1 1345:1 1443:1 1462:1 1548:1 1614:1 1657:1 1840:1 2035:1 2217:1 2380:1 2577:1 2594:3 2595:1 2596:2 2597:1 2598:1 2599:2 2600:1 2601:1 2602:1 2603:1 2604:1 2605:1 2606:1 2607:1 2608:1 2609:1 2610:2 2611:1 2612:1 2613:1 2614:1 2615:1 2616:1 2617:1 2618:1 2619:1 2620:1 2621:1 2622:1 2623:1 2624:1 
-0.02918019296837993 -0.02035779324770384 -0.02415850028655307 0.0209393843462559 1:2 8:1 11:1 14:1 16:3 19:2 27:4 31:3 38:1 48:3 56:1 62:2 81:1 82:2 87:1 97:1 123:1 125:1 126:1 137:1 157:1 166:1 213:1 221:1 259:1 442:1 468:1 523:1 542:1 686:1 877:1 1097:1 1461:1 1529:1 1765:2 1996:1 2115:1 2130:1 2407:1 2747:1 2748:1 2749:1 2750:1 2751:1 2752:1 2753:1 2754:1 2755:1 2756:1 2757:1 2758:1 2759:1 
-0.016292901396299 -0.0142286657897113 -0.01185055400803857 0.01284877435175954 1:6 14:1 16:9 19:2 27:4 29:4 35:1 38:2 43:3 46:1 47:3 48:4 49:6 56:1 62:7 71:1 81:1 82:1 101:1 118:1 123:1 125:1 126:1 191:1 213:2 216:1 221:2 247:1 251:1 266:1 279:1 325:3 340:1 396:1 412:1 446:1 457:1 475:1 501:1 531:1 552:1 563:1 633:3 663:1 681:1 701:1 761:1 790:1 797:1 850:1 854:1 978:1 1002:2 1040:1 1049:1 1135:2 1212:1 1408:1 1674:1 1839:1 1884:1 2000:1 2044:1 2176:1 2576:1 2744:1 2760:1 2761:3 2762:1 2763:1 2764:1 2765:1 2766:1 2767:1 2768:1 2769:1 2770:1 2771:1 2772:1 2773:1 2774:1 2775:1 2776:1 2777:1 2778:1 2779:1 2780:2 2781:1 2782:1 2783:1 2784:1 2785:1 2786:1 2787:1 
-0.01608714695298598 -0.01977996902139207 -0.01777095425442815 0.02565728556161889 1:1 14:2 16:1 19:2 27:3 48:1 61:1 62:4 81:1 82:1 106:1 123:1 125:1 126:1 149:1 179:1 206:2 392:1 468:1 500:1 672:2 874:1 893:2 950:1 954:1 1374:1 1442:1 1708:2 1772:1 1777:1 2393:1 2427:1 2788:1 2789:1 2790:1 2791:1 2792:1 2793:1 2794:1 2795:2 2796:1 2797:1 2798:1 2799:1 2800:1 
-0.01078174752466362 -0.01143226931831437 -0.01032523246173426 0.009432964108038266 1:3 14:6 16:6 19:2 27:6 29:1 31:1 33:1 38:3 42:1 47:2 48:3 49:1 56:1 71:2 81:1 82:1 96:1 110:1 123:1 132:1 138:2 166:1 218:1 221:1 245:1 334:1 347:1 368:1 388:1 419:1 428:1 510:1 557:1 593:1 595:1 684:1 685:1 702:1 757:1 943:1 1022:1 1239:1 1316:1 1477:1 1527:1 1670:1 1740:2 1750:1 1766:1 1781:1 1913:2 2015:1 2278:1 2370:1 2734:1 2801:1 2802:1 2803:1 2804:1 2805:2 2806:1 2807:1 2808:2 2809:2 2810:1 2811:1 2812:1 2813:1 2814:1 2815:1 2816:1 2817:1 2818:1 2819:1 2820:2 2821:1 2822:1 2823:1 2824:1 2825:1 2826:1 2827:1 2828:1 2829:1 2830:1 2831:1 
