svm_type c_svc
kernel_type rbf
gamma 100
nr_class 2
total_sv 28
rho 0.166794
label 1 -1
nr_sv 13 15
SV
0.8225440769709806 1:-0.2755102 2:-0.47959184 
0.8477205355279884 1:-0.030612245 2:-0.45918367 
0.2862718831641246 1:-0.37755102 2:-0.43877551 
0.9415271722080256 1:-0.45918367 2:-0.41836735 
0.7707525952346244 1:-0.17346939 2:-0.39795918 
0.1835154244726045 1:-0.25510204 2:-0.37755102 
0.4751488654923332 1:-0.010204082 2:-0.37755102 
0.6724678483348927 1:-0.33673469 2:-0.31632653 
1.026240542781889 1:0.010204082 2:-0.25510204 
0.8673992274634671 1:-0.39795918 2:-0.21428571 
1.047730107619796 1:-0.17346939 2:-0.19387755 
0.5217684518164893 1:-0.29591837 2:-0.1122449 
0.8637702117735266 1:-0.35714286 2:-0.051020408 
-0.6594971646689123 1:0.35714286 2:-0.030612245 
-0.7273642134731919 1:-0.030612245 2:0.010204082 
-0.6565316936375849 1:0.43877551 2:0.051020408 
-0.6830361998384991 1:-0.091836735 2:0.13265306 
-0.5646172414898183 1:0.13265306 2:0.17346939 
-0.5222871629366153 1:0.071428571 2:0.23469388 
-0.7165059866542186 1:-0.37755102 2:0.25510204 
-0.7878101172891606 1:0.31632653 2:0.25510204 
-0.6561801169238669 1:-0.091836735 2:0.31632653 
-0.2385246901583312 1:-0.43877551 2:0.33673469 
-0.5254508883079159 1:0.41836735 2:0.39795918 
-0.6588700931304327 1:-0.43877551 2:0.41836735 
-0.6102023394468151 1:-0.1122449 2:0.43877551 
-0.5747476673962018 1:0.35714286 2:0.45918367 
-0.7452313675091782 1:-0.25510204 2:0.47959184 
