svm_type c_svc
kernel_type rbf
gamma 0.5
nr_class 2
total_sv 17
rho -14.7886
label 1 -1
nr_sv 8 9
SV
100 1:0.39795918 2:-0.23469388 
100 1:-0.31632653 2:-0.21428571 
100 1:-0.29591837 2:-0.091836735 
100 1:0.33673469 2:-0.030612245 
100 1:0.31632653 2:0.091836735 
87.49760899208412 1:-0.21428571 2:0.13265306 
100 1:0.21428571 2:0.19387755 
100 1:-0.051020408 2:0.25510204 
-77.31256499674483 1:0.41836735 2:-0.39795918 
-59.11590916398026 1:-0.21428571 2:-0.31632653 
-100 1:-0.17346939 2:-0.1122449 
-51.0691348313591 1:0.21428571 2:0.010204082 
-100 1:0.21428571 2:0.071428571 
-100 1:0.13265306 2:0.091836735 
-100 1:-0.051020408 2:0.1122449 
-100 1:0.051020408 2:0.13265306 
-100 1:-0.030612245 2:0.17346939 
